tree
version=v3
num_class=1
num_tree_per_iteration=1
label_index=0
max_feature_idx=20
objective=binary sigmoid:1
feature_names=acqic bacno cano conam contp csmcu ecfg etymd flbmk flg_3dsmk hcefg insfg iterm locdt loctm mcc mchno ovrlt scity stocn stscd
feature_infos=[0:1] [0:1] [0:1] [0:0.96222656569706078] [0:1] [0:1] [0:1] [0:1] [0:1] [0:1] [0:1] [0:1] [0:1] [0:1] [0:1] [0.0043572984749453997:1] [0:0.9999419206830128] [0:1] [0:0.99925048718333076] [0:1] [0:1]
tree_sizes=2236 2249 2223 2240 2259 2274 2276 2240 2276 2275 2267 2276 2277 2269 2288 2289 2292 2271 2261 2312 2272 2271 2273 2301 2272 2277 2248 2279 2315 2301 2287 2287 2241 2284 2228 2279 2299 2260 2277 2290 2272 2252 2277 2298 2269 2265 2257 2258 2284 2189 2265 2279 2293 2265 2289 2273 2265 2291 2268 2288 2277 2294 2245 2260 2303 2218 2247 2290 2206 2228 2257 2257 2292 2249 2240 2236 2268 2276 2268 2285 2265 2228 2240 2259 2252 2255 2271 2307 2279 2238 2258 2233 2284 2276 2255 2249 2285 2265 2244 2284 2212 2228 2243 2245 2259 2258 2247 2294 2288 2275 2285 2278 2272 2287 2270 2248 2268 2277 2272 2274 2235 2251 2236 2277 2277 2250 2252 2219 2250 2243 2263 2293 2294 2240 2243 2248 2235 2256 2258 2256 2251 2270 2226 2255 2279 2278 2237 2310 2217 2274 2248 2241 2296 2250 2255 2271 2230 2246 2283 2261 2262 2268 2239 2246 2266 2249 2262 2279 2226 2275 2266 2275 2269 2247 2251 2234 2250 2241 2241 2214 2249 2281 2277 2276 2253 2261 2244 2253 2274 2263 2271 2267 2262 2239 2279 2279 2258 2254 2270 2217 2260 2277 2257 2247 2258 2292 2250 2286 2261 2233 2234 2283 2272 2302 2204 2249 2230 2240 2272 2257 2261 2242 2259 2269 2277 2229 2244 2256 2200 2280 2260 2255 2252 2239 2244 2246 2245 2253 2267 2282 2298 2270 2273 2253 2253 2289 2271 2257 2249 2253 2238 2257 2288 2256 2231 2266 2257 2249 2288 2263 2261 2295 2193 2235 2208 2243 2237 2260 2234 2240 2264 2269 2251 2244 2266 2302 2298 2254 2234 2258 2268 2246 2278 2275 2276 2265 2234 2281 2245 2250 2217 2250 2245 2256 2262 2315 2238 2253 2271 2281 2254 2260 2269 2279 2237 2275 2261 2257 2272 2291 2285 2259 2275 2255 2293 2246 2266 2245 2234 2268 2250 2252 2274 2221 2224 2251 2241 2248 2274 2228 2300 2275 2259 2289 2214 2237 2228 2284 2252 2239 2255 2275 2272 2286 2221 2274 2252 2251 2262 2293 2242 2264 2257 2255 2266 2268 2229 2275 2243 2288 2268 2262 2262 2249 2267 2256 2257 2216 2229 2268 2274 2256 2264 2244 2258 2263 2261 2258 2243 2260 2288 2264 2258 2238 2247 2214 2243 2276 2297 2227 2289 2225 2265 2267 2275 2294 2253 2262 2279 2234 2247 2257 2252 2246 2264 2248 2253 2263 2276 2250 2272 2244 2240 2287 2241 2252 2238 2296 2275 2259 2255 2287 2245 2238 2289 2285 2216 2227 2281 2262 2287 2237 2209 2279 2255 2236 2265 2269 2245 2286 2245 2231 2260 2259 2203 2262 2256 2253 2272 2274 2270 2252 2239 2313 2292 2247 2272 2238 2252 2241 2250 2254 2251 2278 2196 2251 2263 2263 2286 2261 2224 2255 2259 2229 2287 2295 2252 2248 2268 2246 2248 2259 2224 2283 2272 2257 2236 2270 2288 2267 2226 2229 2252 2237 2255 2223 2240 2240 2234 2262 2283 2267 2263 2288 2265 2263 2270 2302 2263 2241 2256 2245 2248 2270 2264 2256 2272 2244 2257 2234 2266 2257 2259 2244 2267 2228 2266 2206 2265 2268 2283 2259 2275 2207 2270 2294 2258 2232 2258 2217 2298 2258 2262 2236 2264 2284 2292 2230 2261 2252 2275 2247 2257 2232 2233 2220 2221 2256 2260 2283 2298 2274 2241 2244 2248 2267 2266 2208 2295 2278 2257 2265 2267 2281 2272 2253 2292 2239 2260 2283 2270 2264 2277 2212 2251 2228 2286 2258 2241 2269 2246 2299 2224 2239 2262 2273 2280 2269 2246 2226 2235 2232 2204 2271 2235 2254 2256 2237 2257 2276 2251 2261 2259 2275 2278 2257 2213 2276 2266 2265 2226 2239 2229 2238 2245 2265 2266 2276 2287 2272 2249 2228 2249 2278 2262 2243 2244 2267 2263 2280 2255 2249 2260 2237 2239 2250 2242 2221 2266 2229 2280 2227 2255 2275 2218 2228 2261 2258 2255 2237 2228 2270 2244 2223 2270 2228 2262 2255 2278 2278 2270 2274 2239 2262 2254 2262 2279 2264 2250 2238 2256 2248 2258 2256 2282 2222 2211 2258 2263 2218 2220 2236 2243 2259 2245 2289 2274 2194 2269 2285 2246 2275 2251 2227 2219 2280 2260 2223 2312 2255 2228 2301 2275 2290 2288 2247 2268 2253 2283 2218 2281 2255 2231 2212 2263 2255 2276 2264 2293 2276 2259 2237 2279 2262 2281 2256 2256 2276 2260 2239 2252 2246 2250 2239 2259 2236 2254 2305 2266 2226 2257 2244 2252 2261 2221 2251 2280 2246 2208 2254 2235 2246 2247 2259 2278 2278 2202 2258 2289 2227 2263 2281 2269 2269 2277 2220 2243 2263 2278 2281 2229 2244 2283 2250 2243 2262 2258 2239 2277 2239 2226 2271 2255 2272 2244 2240 2237 2232 2272 2203 2260 2278 2261 2276 2262 2293 2192 2282 2268 2261 2278 2292 2230 2264 2273 2280 2272 2265 2271 2277 2285 2218 2258 2246 2264 2193 2240 2248 2289 2252 2241 2220 2252 2262 2266 2266 2220 2292 2262 2263 2282 2274 2263 2282 2279 2273 2256 2258 2282 2252 2267 2290 2269 2265 2232 2256 2244 2274 2278 2243 2294 2286 2240 2284 2238 2249 2287 2244 2263 2287 2287 2248 2254 2217 2238 2208 2266 2254 2282 2199 2254 2251 2272 2284 2271 2288 2260 2260 2265 2298 2269 2253 2279 2295 2257 2260 2267 2260 2263 2263 2279 2253 2208 2281 2258 2292 2277 2244 2260 2246 2278 2265 2251 2236 2254 2230 2275 2280 2256 2262 2242 2198 2253 2279 2260 2268 2293 2247 2250 2251 2283 2283 2290 2225 2257 2251 2301 2252 2271 2284 2262 2267 2283 2276 2296 2271 2263 2244 2283 2277 2252 2260 2243 2239 2284 2271 2226 2276 2276 2259 2254 2250 2263 2260 2301 2252 2211 2247 2248 2241 2262 2289 2261 2285 2261 2258 2262 2280 2279 2246 2232 2240 2228 2289 2253 2239 2219 2264 2320 2243 2256 2273 2279 2279 2300 2236 2264 2277 2242 2239

Tree=0
num_leaves=20
num_cat=0
split_feature=20 18 5 5 3 3 3 6 18 3 3 3 3 13 3 13 5 2 14
split_gain=62965.4 42149.8 46726.7 14878.8 6952.34 6670.54 6410.35 4149.33 7731.55 4583.02 5958.94 2892.66 3292.13 1886.27 2173.29 1720.1 1650.62 1614.03 1724.06
threshold=0.37500000000000006 0.98530954879328447 0.82000000000000017 0.82000000000000017 1.0000000180025095e-35 0.14098591021769316 0.058323403299037103 1.0000000180025095e-35 0.85661819817118878 0.13972425254238938 0.14098729741689633 0.21118096429765407 0.017163122141502552 0.67977528089887651 0.14098729741689633 0.52247191011235972 0.09333333333333331 0.54769281970993855 0.4449056827669215
decision_type=2 2 2 2 2 2 2 2 2 2 2 2 2 2 2 2 2 2 2
left_child=1 7 6 4 -2 -4 -3 -1 9 -9 17 12 -6 14 -7 -5 -10 18 -11
right_child=3 2 5 15 11 13 -8 8 16 10 -12 -13 -14 -15 -16 -17 -18 -19 -20
leaf_value=-4.2071055045024544 3.6754246691583781 -1.4489276646450167 -3.3398052990687077 -1.9000359063101491 1.1655075043746779 1.5606625844144224 3.2043045129652867 -3.7397829937124643 1.6056996922914362 -2.3326387562206166 -3.3137738005370854 1.9398261908233989 -1.4171600415003716 -2.6234843691269076 -2.8201760648766987 -3.5333810320801406 -4.1753588745028214 -1.9230578195216572 1.5265285863278377
leaf_weight=8938.7449423223734 14.364737346768377 9.8372650891542417 268.10292519629002 33.057205528020859 18.059953674674034 11.668228134512903 38.183902055025101 688.10920268297195 1.0652875900268544 4.4608917832374599 103.14979992806911 13.715577721595762 44.891884848475456 7.8065606206655493 4.0281186997890464 33.173721358180046 1676.6794411092997 16.911440491676331 10.403199121356009
leaf_count=537019 863 591 16107 1986 1085 701 2294 41340 64 268 6197 824 2697 469 242 1993 100731 1016 625
internal_value=-4.06148 -4.10397 -2.34794 -0.883162 0.442717 -3.11166 2.2662 -4.15614 -3.97396 -3.57235 -2.72033 -0.18174 -0.66177 -0.537918 0.467186 -2.71385 -4.171 -0.811114 0.407738
internal_weight=0 11779.2 339.627 157.263 91.0322 291.606 48.0212 11439.5 2500.78 823.035 134.925 76.6674 62.9518 23.5029 15.6963 66.2309 1677.74 31.7755 14.8641
internal_count=717112 707664 20404 9448 5469 17519 2885 687260 150241 49446 8106 4606 3782 1412 943 3979 100795 1909 893
is_linear=0
shrinkage=1


Tree=1
num_leaves=20
num_cat=0
split_feature=6 18 18 18 5 3 13 5 5 3 18 18 5 0 13 18 13 3 5
split_gain=3439.09 1128.73 963.331 628.093 603.36 538.462 566.46 571.454 451.415 477.767 438.212 634.475 378.212 351.749 285.908 282.584 236.843 273.216 234.084
threshold=1.0000000180025095e-35 0.85234597511617449 0.88757307749962522 0.9861340128916205 0.91333333333333344 0.056495768348830612 0.095505617977528115 0.85333333333333339 0.82000000000000017 0.022838154081764251 0.79755658821765862 0.79853095487932857 0.16666666666666663 0.99585996513654862 0.52247191011235972 0.21833308349572772 0.62359550561797761 0.19892644653664907 0.23333333333333331
decision_type=2 2 2 2 2 2 2 2 2 2 2 2 2 2 2 2 2 2 2
left_child=3 5 -3 -1 8 13 10 12 16 -10 -7 -12 -8 -2 -6 -9 17 -4 -14
right_child=1 2 4 -5 14 6 7 15 9 -11 11 -13 18 -15 -16 -17 -18 -19 -20
leaf_value=-0.1428489830037987 -0.0045396045169823424 -0.12274790869753308 -0.010927157017890746 0.37169675451022038 1.2477183868583241 0.53135781674276028 0.7770686880967741 1.3731905821465933 0.3736809134919139 0.06268865207597786 4.3901136052520791 0.36930066589609689 -0.094596620681622293 0.67455583694476051 0.18549722551731976 0.43688371593568825 -0.23887003021274333 1.1937669175903864 0.15521033746166071
leaf_weight=7877.3024822808802 673.47748967632651 1413.5740959662944 261.79881280660629 61.001326862722635 15.895119260996582 65.624701760709286 23.542982541024685 13.351178284734486 158.83662720955908 618.97943038865924 1.6994182281196111 2.2394318394362926 105.93023632839322 19.907724659889936 11.066264711320398 22.068078678101301 152.12206281721592 4.7094689216464749 1007.4319845326245
leaf_count=538678 21579 94094 3532 1599 323 1711 334 384 4596 17234 62 49 3939 663 349 648 2023 135 25180
internal_value=0 0.035313 -0.0327852 -0.138884 0.0711512 0.128105 0.191161 0.164751 0.0541991 0.126296 0.634257 2.23626 0.144934 0.0151237 0.816896 0.796 -0.0797156 0.0111802 0.131416
internal_weight=0 4572.26 2636.98 7938.3 1223.41 1935.27 1241.89 1172.32 1196.45 777.816 69.5636 3.93885 1136.91 693.385 26.9614 35.4193 418.63 266.508 1113.36
internal_count=717112 176835 122286 540277 28192 54549 32307 30485 27520 21830 1822 111 29453 22242 672 1032 5690 3667 29119
is_linear=0
shrinkage=0.16


Tree=2
num_leaves=20
num_cat=0
split_feature=19 19 19 20 15 0 15 15 5 20 7 2 15 15 15 19 0 0 7
split_gain=5073.67 1194.09 638.901 587.655 922.214 496.39 385.507 353.865 630.899 349.246 860.604 900.104 330.219 325.734 316.752 267.102 250.23 242.246 274.503
threshold=0.92990654205607481 0.96261682242990665 0.014018691588785001 0.37500000000000006 0.42265795206971685 0.91843404997094724 0.62200435729847514 0.64161220043572997 0.82000000000000017 0.37500000000000006 0.35000000000000003 0.78404989359408273 0.56318082788671042 0.55773420479302838 0.41721132897603491 0.51869158878504684 0.86904416037187693 0.99186519465427092 0.25000000000000006
decision_type=2 2 2 2 2 2 2 2 2 2 2 2 2 2 2 2 2 2 2
left_child=2 -2 9 4 5 -3 12 8 -8 10 11 -1 -6 15 -7 -4 -9 -15 -19
right_child=1 3 13 -5 6 14 7 16 -10 -11 -12 -13 -14 17 -16 -17 -18 18 -20
leaf_value=6.8236364028635617 -0.14800543826965881 0.88404460444315192 -0.059840146158108988 -0.058570220604803533 0.3308109016122896 -0.10881399955672259 -0.3346602558403648 0.14926715642504762 0.49151791231095027 0.29742794599182543 0.16574987656678769 0.30271610767133195 1.2454894894684396 0.14156805131113534 3.6349097801649051 0.12607728321399619 0.7323322072358982 1.6125003097562152 0.040533673618892242
leaf_weight=1.3598076105117782 8080.3436743281782 12.488825988024475 433.07259722054005 429.58732868544757 52.870972324162722 0.68010424077510778 90.598336396738887 89.861617094837129 31.799091517925262 3.5232065953314304 2.2669604793190956 0.86805726215243328 12.404122737236319 2020.2198338294402 3.0471979603171349 363.7658952800557 23.738808685913682 5.912197779864071 5.3779376596212387
leaf_count=107 621791 605 16202 3489 1908 36 2383 5385 839 38 78 69 602 53043 127 8842 944 275 349
internal_value=0 -0.130112 0.115861 0.0633915 0.228398 1.39649 0.164588 0.0691451 -0.119435 1.52484 2.42986 4.52368 0.508144 0.111754 2.97698 0.0250236 0.272322 0.145759 0.878842
internal_weight=0 8827.42 2836.37 747.076 317.489 16.2161 301.273 235.998 122.397 8.01803 4.49483 2.22786 65.2751 2828.35 3.7273 796.838 113.6 2031.51 11.2901
internal_count=717112 638109 79003 16318 12829 768 12061 9551 3222 292 254 176 2510 78711 163 25044 6329 53667 624
is_linear=0
shrinkage=0.16


Tree=3
num_leaves=20
num_cat=0
split_feature=19 19 3 18 3 3 3 3 18 15 18 5 5 5 5 18 3 15 16
split_gain=3790.55 960.806 217.614 287.015 432.319 466.498 261.126 254.189 210.088 201.441 597.963 254.62 440.073 238.792 231.103 360.96 288.487 261.978 926.449
threshold=0.94859813084112166 0.96261682242990665 0.014356818153443602 0.9861340128916205 0.11120343692474581 0.058323403299037103 0.10050813106812952 0.1122937754984553 0.98973167441163257 0.55773420479302838 0.27042422425423474 0.27333333333333332 0.25333333333333335 0.16666666666666663 0.82000000000000017 0.92257532603807535 0.058323403299037103 0.57407407407407418 0.31327983582913072
decision_type=2 2 2 2 2 2 2 2 2 2 2 2 2 2 2 2 2 2 2
left_child=8 -2 -3 -4 5 -5 -7 -6 9 13 11 12 -11 -1 15 17 -17 18 -12
right_child=1 2 3 4 7 6 -8 -9 -10 10 14 -13 -14 -15 -16 16 -18 -19 -20
leaf_value=0.31254833436510338 -0.14548230775139256 -0.093592792706361491 0.14481656042940896 0.0011330589382349608 0.62792448863724493 -1.9588422100551119 -0.66315189384185147 -0.052479889798381224 -0.76537740981838354 0.20796115829864234 3.8150440125277032 0.29699323141648726 2.0302439665022836 -0.0072513768551436507 0.10136007857687609 -0.15637099132596791 -0.84346516508447267 0.016181322160885289 0.063597378891813966
leaf_weight=64.696128150448203 6995.431141577661 255.82810926251113 470.17041276022792 16.171314530074596 15.7895660251379 6.74350053444505 10.25545262545347 115.92379305046052 7.238215345889329 7.9148055668920279 1.9346802253276099 257.24577506538481 5.836593325249849 756.12131573073566 1717.8192625278607 56.587340231053531 21.533671511337161 172.09275467228144 8.0819077743217331
leaf_count=810 621749 6554 7709 129 131 109 132 1554 132 220 122 5456 125 24476 39811 392 547 6571 383
internal_value=0 -0.125553 0.0309207 0.0811192 -0.100374 -0.614806 -1.19489 0.0297929 0.0838209 0.0858781 0.110638 0.333466 1.00057 0.0180055 0.0800716 -0.0603653 -0.34764 0.0630277 0.850245
internal_weight=0 7886.31 890.882 635.054 164.884 33.1703 16.999 131.713 3077.1 3069.86 2249.05 270.997 13.7514 820.817 1978.05 260.23 78.121 182.109 10.0166
internal_count=717112 638067 16318 9764 2055 370 241 1685 79045 78913 53627 5801 345 25286 47826 8015 939 7076 505
is_linear=0
shrinkage=0.16


Tree=4
num_leaves=20
num_cat=0
split_feature=19 19 20 18 3 3 16 2 3 3 16 16 5 5 18 3 3 3 3
split_gain=2919.38 907.814 215.565 577.517 398.065 238.795 210.007 198.421 166.781 163.58 158.761 268.232 156.979 186.608 216.276 177.214 224.419 220.56 201.267
threshold=0.92990654205607481 0.96261682242990665 0.37500000000000006 0.9861340128916205 0.00025663185259060007 0.21118096429765407 0.72341177267755352 0.90843934862703579 0.09596921527528271 0.22637773156863103 0.54624081620800158 0.57850871673749127 0.79333333333333345 0.14000000000000004 0.95487932843651635 0.13655034076548422 0.094755415972489057 0.14098729741689633 0.10130230261195737
decision_type=2 2 2 2 2 2 2 2 2 2 2 2 2 2 2 2 2 2 2
left_child=12 -2 3 6 7 8 9 10 -6 -3 -4 -12 13 -1 -15 16 -14 -17 -18
right_child=1 2 4 -5 5 -7 -8 -9 -10 -11 11 -13 15 14 -16 17 18 -19 -20
leaf_value=0.19039002620176848 -0.14265343791023294 0.21840531714520542 -0.34312961301071704 -0.21306860532551891 -0.069943699860410269 -0.34717420684021472 -0.063976140348420418 -2.1421232022735439 0.14649877366181005 0.71674019001577549 -3.3148791251899978 -0.3708342402924209 0.079982041857328157 -0.0051318591245715821 -0.29281417476738775 -0.074349254959247019 0.51649552634011275 0.11368766123892816 0.16975633927365136
leaf_weight=99.031870704144239 6070.2615573881194 299.83676255214959 18.178657203912742 117.1433081664145 207.39011533930898 49.898580078035593 67.328973736613989 2.0266343951225272 162.22065428644419 17.757634771987796 1.1381305083632463 2.122728805989027 1739.422238976229 437.54937558760867 78.802229900378734 371.97694239579141 51.644229584839195 279.48872547503561 251.99101063981652
leaf_count=1518 621791 6799 614 1584 1160 545 4111 70 1021 335 36 43 43309 16183 734 3430 1394 5986 6449
internal_value=0 -0.119944 0.0259097 0.0976815 -0.0554074 -0.0193423 0.192355 -0.693863 0.0250366 0.246753 -0.53769 -1.53519 0.0623491 -0.0105375 -0.0491634 0.0790007 0.10217 0.00630704 0.229086
internal_weight=0 7015.3 945.042 502.067 442.976 419.509 384.923 23.4662 369.611 317.594 21.4395 3.26086 3309.91 615.383 516.352 2694.52 2043.06 651.466 303.635
internal_count=717112 638109 16318 12829 3489 2726 11245 763 2181 7134 693 79 79003 18435 16917 60568 51152 9416 7843
is_linear=0
shrinkage=0.16


Tree=5
num_leaves=20
num_cat=0
split_feature=19 19 13 13 14 18 6 18 15 13 18 5 18 0 15 2 15 9 15
split_gain=2289.94 900.718 179.141 145.319 139.634 100.86 93.7292 89.9204 89.8748 188.554 151.371 185.726 126.64 123.32 168.41 130.048 86.4494 125.417 344.151
threshold=0.94859813084112166 0.96261682242990665 0.10674157303370786 0.51123595505617991 0.30175581350997432 0.98973167441163257 1.0000000180025095e-35 0.78151701394093853 0.62854030501089342 0.54494382022471921 0.27042422425423474 0.82000000000000017 0.056888022785189611 0.48641778036025568 0.6982570806100219 0.74421564307611554 0.81154684095860574 1.0000000180025095e-35 0.81590413943355122
decision_type=2 2 2 2 2 2 2 2 2 2 2 2 2 2 2 2 2 2 2
left_child=2 6 -1 -3 -4 8 -2 -5 9 12 11 13 -6 -10 15 -15 -8 18 -18
right_child=1 3 4 7 5 -7 16 -9 10 -11 -12 -13 -14 14 -16 -17 17 -19 -20
leaf_value=0.1806914791655452 -0.1501286609442595 0.071904706655613077 0.098435900251583636 0.011614652879789158 -0.10122786967402689 -0.64351268664417149 -0.11629912034296482 -0.1325610932619963 -0.054811496208596246 -0.10728124768750051 0.024655792580333125 0.092268554756574056 0.10644224953138624 1.7224481307049107 0.39991716699947982 0.36512812053167798 0.68524515635793937 -0.13447860414503626 -0.047220817656048797
leaf_weight=244.36245226161554 4239.4656107220799 615.98608347401023 766.60668129241094 271.77185152005404 101.13562951143831 5.6430916748940936 875.82291822228581 186.46155653521419 9.0835193470120412 362.74004125222564 1537.3512052660808 162.44253650866449 290.57414316898212 5.0439707674086076 25.78620595484972 3.0086099673062563 22.110772248357534 78.558871553279459 62.001059073954821
leaf_count=4729 514831 8484 15002 4508 3715 103 90068 3326 186 11939 33197 2940 6725 114 335 60 2481 8875 5494
internal_value=0 -0.112385 0.0485829 0.0211477 0.0386936 0.0203818 -0.139565 -0.0470498 0.0219399 -0.0241754 0.0419136 0.170877 0.0527587 0.466197 0.606025 1.2384 -0.0964066 0.0106083 0.146304
internal_weight=0 6352.18 3513.78 1074.22 3269.42 2502.81 5277.96 458.233 2497.17 754.45 1742.72 205.365 391.71 42.9223 33.8388 8.05258 1038.49 162.671 84.1118
internal_count=717112 638067 79045 16318 74316 59314 621749 7834 59211 22379 36832 3635 10440 695 509 174 106918 16850 7975
is_linear=0
shrinkage=0.16


Tree=6
num_leaves=20
num_cat=0
split_feature=19 19 2 2 14 2 3 14 0 5 3 3 18 3 9 14 5 5 3
split_gain=1838.54 807.509 122.263 142.257 97.6781 91.1196 90.6383 84.4556 77.6683 77.6299 104.906 92.0738 205.693 99.7833 78.0506 76.5244 76.0456 77.5916 72.605
threshold=0.94859813084112166 0.96261682242990665 0.2982951615776202 0.30610216843072374 0.313272644823889 0.96912119024628074 0.14098591021769316 0.48245457897346583 0.47152818128994772 0.91333333333333344 1.0000000180025095e-35 0.096400634227475676 0.98530954879328447 0.096669057273293515 0.75000000000000011 0.33971367907136413 0.79333333333333345 0.64666666666666683 0.014356818153443602
decision_type=2 2 2 2 2 2 2 2 2 2 2 2 2 2 2 2 2 2 2
left_child=2 4 8 6 -2 18 -4 -8 -1 10 15 16 14 -14 -13 -5 17 -12 -3
right_child=1 5 3 9 -6 -7 7 -9 -10 -11 11 12 13 -15 -16 -17 -18 -19 -20
leaf_value=-0.084299043395729689 -0.03570931531095025 -0.044673322374874272 0.028380931905949335 0.26809636787359697 -0.14159476720444317 -0.25456939220239594 -0.20342066344119455 -0.80274966959282501 0.11210938418309446 0.12954474268071331 -0.064944609108578397 0.1010241368054208 0.49771956699083952 -0.10668911562149919 -0.15743861067460529 0.067968932961058853 0.0017234301687029364 -0.35867260329848255 0.050796432036286844
leaf_weight=55.567899068817496 235.60901142377406 276.89675403665751 15.609499802812932 64.262233545072377 4375.1831905553117 30.388913533184677 14.397265573032202 10.509872238617389 674.55607183650136 180.7902821842581 216.07931219739839 702.46935685398057 7.0277348589152089 211.47388038877398 31.019460116047412 205.35305686481297 1224.1460762699135 25.637665756978095 771.00207187375054
leaf_count=2540 30332 6263 319 1378 591417 629 139 115 13422 3600 6906 14312 73 2688 745 4987 27366 455 9426
internal_value=0 -0.107039 0.0385835 0.0238791 -0.136189 0.0175955 -0.273059 -0.461332 0.0971203 0.0280979 0.0212584 0.0106905 0.0494329 -0.0867388 0.0900319 0.115892 -0.0144628 -0.0964357 0.0255505
internal_weight=0 5689.08 3638.9 2908.78 4610.79 1078.29 40.5166 24.9071 730.124 2868.26 2687.47 2417.85 951.99 218.502 733.489 269.615 1465.86 241.717 1047.9
internal_count=717112 638067 79045 63083 621749 16318 573 254 15962 62510 58910 52545 17818 2761 15057 6365 34727 7361 15689
is_linear=0
shrinkage=0.16


Tree=7
num_leaves=20
num_cat=0
split_feature=19 19 6 20 18 13 20 5 18 19 18 5 15 13 0 0 19 15 15
split_gain=1480.29 722.164 111.901 110.776 333.296 136.698 105.221 139.557 145.368 140.435 189.92 469.268 285.043 159.888 118.128 134.537 153.19 117.977 112.654
threshold=0.94859813084112166 0.96261682242990665 1.0000000180025095e-35 0.37500000000000006 0.9861340128916205 0.55617977528089901 0.37500000000000006 0.14000000000000004 0.66189476840053973 0.19626168224299065 0.27042422425423474 0.82000000000000017 0.43028322440087147 0.44382022471910115 0.48641778036025568 0.48772515979081932 0.69158878504672905 0.41938997821350765 0.41721132897603491
decision_type=2 2 2 2 2 2 2 2 2 2 2 2 2 2 2 2 2 2 2
left_child=6 2 -2 4 5 -3 7 8 17 -9 11 12 13 -11 -12 16 -16 18 -1
right_child=1 3 -4 -5 -6 -7 -8 9 -10 10 14 -13 -14 -15 15 -17 -18 -19 -20
leaf_value=0 -0.14606986551295983 0.20128999503612302 -0.080377140545948508 -0.040653575660479058 -0.16525469075182397 0.024198462443218875 -0.024294820029780145 -0.095233381456009528 0.06510311006917055 2.7598631047639004 0.068738314961221902 0.060309777731041056 0.44154116219490924 0.24833034206466409 -0.60356589844514541 0.0052064019683701604 0.54125887067435263 0.36090852659418377 1.5172652768080568
leaf_weight=1.6618495918810392 3193.5600299956277 262.17444196343422 840.6298495256342 501.13003009185195 128.84413941623643 194.65398384956643 715.36550961597823 186.35128438891843 31.389814522583038 1.9925538059324019 1183.1310875262134 275.83395471703261 73.767096797935665 1.0030451817438004 17.002645366825167 1254.2298456716817 3.4444774966686955 17.690913248807192 5.0156240612268448
leaf_count=26 514831 5966 106918 3489 1584 5279 5730 8334 643 54 24705 6367 1030 43 191 31332 108 405 77
internal_value=0 -0.101205 -0.13239 0.0145414 0.0617939 0.12591 0.0309171 0.0438621 0.294266 0.0391784 0.0481028 0.157895 0.507277 1.99208 0.0323339 -0.00144897 -0.406561 0.585875 1.15173
internal_weight=0 5120.99 4034.19 1086.8 585.673 456.828 3767.88 3052.51 55.7582 2996.76 2810.4 352.597 76.7627 2.9956 2457.81 1274.68 20.4471 24.3684 6.67747
internal_count=717112 638067 621749 16318 12829 11245 79045 73315 1151 72164 63830 7494 1127 97 56336 31631 299 508 103
is_linear=0
shrinkage=0.16


Tree=8
num_leaves=20
num_cat=0
split_feature=6 3 9 2 5 14 5 8 20 3 3 3 15 5 2 16 15 3 3
split_gain=1150.09 293.979 237.431 126.233 107.458 104.975 90.2509 86.6217 85.5316 194.107 229.765 176.283 174.263 161.499 116.927 105.741 262.856 121.847 81.2532
threshold=1.0000000180025095e-35 0.0082989192331007506 0.75000000000000011 0.28618035568638855 0.82000000000000017 0.33971367907136413 0.91333333333333344 0.75000000000000011 0.37500000000000006 0.21118096429765407 0.11120343692474581 0.18826443346090943 0.62854030501089342 0.82000000000000017 0.30965528232724288 0.022951010096121206 0.92701525054466261 0.082109708036183712 0.00025663185259060007
decision_type=2 2 2 2 2 2 2 2 2 2 2 2 2 2 2 2 2 2 2
left_child=1 4 3 5 -1 -2 8 -3 11 10 -10 12 -5 -13 -14 16 -16 -18 -8
right_child=2 7 -4 6 -6 -7 18 -9 9 -11 -12 13 14 -15 15 -17 17 -19 -20
leaf_value=-0.083746802330210174 0.15555085944409469 -0.12779398160272532 -0.13808281181261281 -0.053199177639558823 0.11060655734306896 0.036445911659870441 -0.12319192353871135 0.2076580154146675 -0.081305648369654052 -0.31880785485147056 0.11005145623107498 0.36401182776097007 -0.18963256532505482 0.015986683857511209 0.2408330644658345 0.03823212719440177 5.6089710136927113 0.77103630238821341 0.16341862692815273
leaf_weight=116.49147318443283 254.83446312602609 3165.3368427809328 269.28668159805238 946.31944645522162 193.36923735309392 739.56864053430036 30.35151339834556 19.622030323371291 549.843566497555 62.188936430029571 226.65687849838287 67.405786638148129 58.427213916089386 69.185458595398813 3.3921462954021986 1646.3068409706466 0.19100952055305231 0.33091279398649931 147.29731287248433
leaf_count=8192 5324 521721 29940 54013 7817 28849 2143 2547 4177 658 1552 783 1106 4563 379 41290 26 33 1999
internal_value=0 -0.111235 0.00804985 0.0162529 0.0374813 0.06701 0.00299106 -0.125709 -0.00245641 -0.0472599 -0.0254148 0.0110009 0.00186858 0.18813 0.0323794 0.0402716 0.850647 3.62714 0.114277
internal_weight=0 3494.82 5071.59 4802.3 309.861 994.403 3807.9 3184.96 3630.25 838.689 776.5 2791.56 2654.97 136.591 1708.65 1650.22 3.91407 0.521922 177.649
internal_count=717112 540277 176835 146895 16009 34173 112722 524268 108580 6387 5729 102193 96847 5346 42834 41728 438 59 4142
is_linear=0
shrinkage=0.16


Tree=9
num_leaves=20
num_cat=0
split_feature=19 19 14 13 13 2 14 6 20 3 3 3 1 3 2 1 1 0 0
split_gain=974.974 639.538 112.79 90.7866 81.4644 67.7586 65.9871 65.5675 72.1749 60.0154 54.8799 66.146 54.1352 53.5861 50.7322 312.296 857.806 50.4365 76.4612
threshold=0.94859813084112166 0.96261682242990665 0.313272644823889 0.10674157303370786 0.32022471910112366 0.35197390008156232 0.30175581350997432 1.0000000180025095e-35 1.0000000180025095e-35 0.14098591021769316 0.00025663185259060007 0.014352656555834002 0.6452164043860561 0.26682637953492766 0.011076527885850352 0.054303985160144654 0.05039265817687006 0.98031667635095887 0.48641778036025568
decision_type=2 2 2 2 2 2 2 2 2 2 2 2 2 2 2 2 2 2 2
left_child=3 2 -2 -1 -3 -6 10 -4 14 -10 -5 12 -12 -13 15 16 -9 18 -8
right_child=1 4 7 6 5 -7 17 8 9 -11 11 13 -14 -15 -16 -17 -18 -19 -20
leaf_value=0.1064957234404469 -0.0050976538022558674 0.082919748065251292 -0.14524004718126002 0.15323430072932079 0.063248237518980135 -0.039544044098040854 0.026360117963325304 -0.12025965875282919 1.2210824947778205 -0.13584164376350635 -0.34168420388430853 0.040184458475661523 0.12379426340418968 0.36564262614098686 -0.096640110936829129 -0.16691747417321781 8.4210431806559161 0.091110835379736438 -0.028890748737375654
leaf_weight=297.7876027720049 188.79716833028942 315.11991527955979 2349.0765147451311 119.18122205231339 222.83423876389861 621.27931192936376 1201.9058756150771 0.96984942397102603 1.7685616035014384 1.3515973053872583 20.37061868142337 740.157465335913 9.0966937821358425 13.000021197367458 653.81515592848882 6.0638837842270732 0.23066631052643061 153.95854642800987 1373.9036242812872
leaf_count=4729 30332 4300 496409 1759 3182 8836 25019 109 65 47 193 12786 84 180 93994 770 23 3693 30602
internal_value=0 -0.0882948 -0.125158 0.0215865 0.0135212 -0.0123808 0.0146141 -0.132675 -0.0881799 0.655693 0.0521337 0.036682 -0.197584 0.0459189 -0.0919122 0.322655 2.47764 0.00221039 -0.00310373
internal_weight=0 4361.31 3202.07 3929.36 1159.23 844.114 3631.57 3013.28 664.2 3.12016 901.806 782.625 29.4673 753.157 661.08 7.2644 1.20052 2729.77 2575.81
internal_count=717112 638067 621749 79045 16318 12018 74316 591417 95008 112 15002 13243 277 12966 94896 902 132 59314 55621
is_linear=0
shrinkage=0.16


Tree=10
num_leaves=20
num_cat=0
split_feature=19 19 14 18 13 2 18 15 3 3 13 3 13 1 2 2 20 18 3
split_gain=789.05 567.732 109.186 68.0188 66.3563 69.5798 76.2736 121.33 70.3957 168.64 113.788 87.7954 88.5222 97.7325 75.2903 65.4947 60.6797 188.604 76.3918
threshold=0.92990654205607481 0.96261682242990665 0.313272644823889 0.98973167441163257 0.83707865168539342 0.77328977096946594 0.056888022785189611 0.55773420479302838 0.13469357463201073 0.14098729741689633 0.34269662921348315 0.11028649825143537 0.3314606741573034 0.97345972431551797 0.34756766385105053 0.96912119024628074 0.37500000000000006 0.9861340128916205 0.035373579681415808
decision_type=2 2 2 2 2 2 2 2 2 2 2 2 2 2 2 2 2 2 2
left_child=3 2 -2 4 5 6 7 -1 11 10 14 -8 13 -13 -10 16 17 -3 -19
right_child=1 15 -4 -5 -6 -7 8 -9 9 -11 -12 12 -14 -15 -16 -17 -18 18 -20
leaf_value=-0.145680504920981 -0.0037134342439487491 0.098004211530975743 -0.12990474711268479 -0.40080293512376691 -0.02733723416386729 -0.0065350922201233468 0.057544549749863408 0.12734949080878263 -0.41420379936591589 0.087412234675650125 -0.015848247785163822 0.32172431447721112 0.090845915450798773 1.5830223824614578 -0.10802807523243348 -0.2284272865357439 -0.023698767622745504 0.40857960941786375 -0.13901571784724101
leaf_weight=124.35125568322837 188.30525244819 484.72019786620513 2643.4130950984545 9.7133694849908334 665.19302155775949 1028.2744681611657 1478.178005711874 62.377502023708075 38.176135200075805 262.51286333147436 149.38285475596786 46.847068063449115 78.69870488718152 1.4529346069321025 45.109041881747544 28.260050604585558 508.92476128786802 6.6515595540404311 133.78237149864435
leaf_count=5190 30347 10693 591444 132 14914 19977 28006 712 363 5089 1551 802 1845 29 393 629 3429 78 1489
internal_value=0 -0.0828736 -0.12152 0.0177184 0.0187638 0.0280194 0.0435613 -0.0543495 0.0522778 -0.000428957 -0.0995964 0.0685453 0.196169 0.366367 -0.24922 0.0112678 0.0172941 0.050688 -0.112421
internal_weight=0 3994.06 2831.72 3990.27 3980.55 3315.36 2287.09 186.729 2100.36 495.181 232.668 1605.18 126.999 48.3 83.2852 1162.34 1134.08 625.154 140.434
internal_count=717112 638109 621791 79003 78871 63957 43980 5902 38078 7396 2307 30682 2676 831 756 16318 15689 12260 1567
is_linear=0
shrinkage=0.16


Tree=11
num_leaves=20
num_cat=0
split_feature=6 19 9 19 17 19 7 16 5 3 15 5 3 17 20 15 1 1 7
split_gain=665.946 305.237 153.88 131.677 102.052 339.709 132.094 115.827 70.296 77.9229 72.7443 92.6054 72.2865 69.6359 65.6199 63.255 61.4686 393.196 320.709
threshold=1.0000000180025095e-35 0.94859813084112166 0.75000000000000011 0.96261682242990665 1.0000000180025095e-35 0.71962616822429915 0.25000000000000006 0.063078978191216412 0.85333333333333339 0.00025663185259060007 0.55773420479302838 0.16666666666666663 0.26682637953492766 1.0000000180025095e-35 0.37500000000000006 0.53703703703703709 0.96969179231524949 0.97345972431551797 0.75000000000000011
decision_type=2 2 2 2 2 2 2 2 2 2 2 2 2 2 2 2 2 2 2
left_child=1 4 8 -3 6 -6 -1 -7 10 -10 11 -2 15 -12 -14 -13 -4 18 -18
right_child=2 3 16 -5 5 7 -8 -9 9 -11 13 12 14 -15 -16 -17 17 -19 -20
leaf_value=0.062585876277384628 0.13839772567417177 -0.13516180636615541 -0.14430441949637574 0.0020243008776104909 0.10872660832944195 0.77881172298100321 -0.1013027791508202 3.1318980816476922 -0.12516015991410301 0.13467121619251848 0.022064016817319339 -0.020978034186668371 0.36549260723329147 -0.095668440698762208 -0.15991093115968391 -0.10518822731165044 6.0629720195484156 -0.15306519163586471 -0.075447013361991278
leaf_weight=323.12376145110466 79.287735594436526 1884.7836517288815 203.64353126985952 197.66086377063766 16.896145526785407 1.2161882407963269 205.98411367554218 1.155059643089771 34.474599363747984 198.80364417098463 3410.0869917969685 734.79793624719605 20.180462656542659 133.41311933659017 8.490992833394559 331.65468083275482 0.31672044331207772 5.0975003964267671 0.35961188888177276
leaf_count=7432 643 514831 28957 6954 408 14 10595 43 2618 2415 69190 27623 901 1972 87 41446 56 867 60
internal_value=0 -0.0941685 0.0047389 -0.122134 0.0120059 0.371784 -0.00120067 2.0857 0.0104262 0.0961297 0.00618131 -0.0283208 -0.040429 0.0176217 0.209311 -0.0471963 -0.12953 0.376271 3.50853
internal_weight=0 2630.82 5160.61 2082.44 548.375 19.2674 529.108 2.37125 4951.19 233.278 4717.91 1174.41 1095.12 3543.5 28.6715 1066.45 209.417 5.77383 0.676332
internal_count=717112 540277 176835 521785 18492 465 18027 57 146895 5033 141862 70700 70057 71162 988 69069 29940 983 116
is_linear=0
shrinkage=0.16


Tree=12
num_leaves=20
num_cat=0
split_feature=6 19 19 2 18 14 3 3 16 3 16 16 3 3 2 1 2 1 3
split_gain=531.446 257.149 122.443 76.2945 59.7805 86.8349 76.5615 108.126 57.5451 58.5686 70.5822 499.91 841.649 1186.78 828.873 837.459 462.086 503.466 194.164
threshold=1.0000000180025095e-35 0.94859813084112166 0.96261682242990665 0.91592057524820258 0.80610103432768709 0.30815099233341398 0.071214645494307616 0.13772668568979177 0.52500798590608588 0.1357464588272341 0.78587607809732174 0.76711161876736356 0.088316730870869706 0.095204174914721912 0.10680200999371882 0.70254998993184181 0.79489439095502845 0.17018848812872603 0.092637856388815262
decision_type=2 2 2 2 2 2 2 2 2 2 2 2 2 2 2 2 2 2 2
left_child=1 -1 -3 4 6 -6 -2 -8 -7 10 11 -10 -13 14 -14 16 17 -16 -19
right_child=3 2 -4 -5 5 8 7 -9 9 -11 -12 12 13 -15 15 -17 -18 18 -20
leaf_value=0.0069750552737674176 -0.0084057751787881586 -0.13140892089977163 0.0016983535018896144 -0.058837720508032126 0.043757666048517718 -0.09878742714057305 0.093050929378476116 0.0071480078759679254 -0.0067417359586168235 -0.10488197442682111 -0.14007995643900967 0.10763299911192542 0.035304488139150977 -0.086573778603261917 -0.019738510530248107 -0.087273315288484879 1.8568689436654546 3.0960153851299363 11.270115606047787
leaf_weight=555.77610163460486 1009.6098933387548 1648.3273612647317 197.91485165013 468.89452791493386 559.93939225235954 256.7257314750459 724.08488583099097 779.0515021122992 1089.0404932252131 167.13121842313558 89.796795079717413 12.790365579538049 0.79336839029565398 2.5751092745922506 0.14043444022536311 0.44965755194425572 0.43631944805383671 0.29615527484565951 0.82313314359635115
leaf_count=18492 24441 514831 6954 15737 15387 42299 15097 8777 27313 7992 18006 1237 45 295 14 50 24 33 88
internal_value=0 -0.0884119 -0.117133 0.00268307 0.00883459 -0.0105416 0.025658 0.0485463 -0.0293111 -0.0162129 -0.00380512 0.00725453 0.831909 2.44653 4.53515 6.04727 7.51976 8.94705 9.91666
internal_weight=0 2402.02 1846.24 5162.58 4693.68 2180.94 2512.75 1503.14 1621 1364.27 1197.14 1107.35 18.3045 5.51418 2.93907 2.1457 1.69604 1.25972 1.11929
internal_count=717112 540277 521785 176835 161098 112783 48315 23874 97396 55097 47105 29099 1786 549 254 209 159 135 121
is_linear=0
shrinkage=0.16


Tree=13
num_leaves=20
num_cat=0
split_feature=19 19 20 3 3 5 3 18 1 3 3 2 2 15 15 3 15 3 2
split_gain=445.419 436.071 58.8294 103.94 96.2997 236.101 135.25 70.4157 66.3718 63.6378 131.594 125.445 87.6762 77.8317 115.666 96.4613 115.844 90.7209 70.1314
threshold=0.92990654205607481 0.96261682242990665 0.37500000000000006 0.26682637953492766 0.20296458341714327 0.82000000000000017 0.12839638384911714 0.98973167441163257 0.6452164043860561 0.13469357463201073 0.14098729741689633 0.60545201421245587 0.4749360158249506 0.41938997821350765 0.59586056644880181 0.096400634227475676 0.6350762527233117 0.096669057273293515 0.9270252280461625
decision_type=2 2 2 2 2 2 2 2 2 2 2 2 2 2 2 2 2 2 2
left_child=2 -2 3 7 6 -6 8 9 -4 12 11 -11 13 -1 -15 -16 -17 -18 -13
right_child=1 -3 4 -5 5 -7 -8 -9 -10 10 -12 18 -14 14 15 16 17 -19 -20
leaf_value=0.20162872234113705 -0.11445486446356876 0.0066251870685179468 -0.086947296293111764 0.25635497224306597 -0.60794969455492076 0.067756472777754373 0.13410095183605197 -0.39498956674553748 0.033195268455239658 -0.18237064365505476 0.048868589963801529 0.034747354883959934 0.0071751165646899359 -0.10353323763780281 0.051304393307651443 0.42883374635651289 0.81339679281962873 0.027287584002066462 -0.23696410155511743
leaf_weight=100.20967637049034 2030.566672389512 1217.8629255928099 375.43657137220725 46.381980130448937 23.973448178730905 29.102982128039002 126.57686534430832 10.452497776132075 171.07843115227297 186.95682981400751 335.75225776457228 180.30352529184893 1700.6958822286688 105.90994416503236 604.96970538748428 40.545514082536101 3.8293476179242125 57.037985160481185 27.903888432309031
leaf_count=1922 621791 16318 2861 826 301 240 972 110 1352 1961 7990 1522 40251 5216 11341 672 36 1157 273
internal_value=0 -0.0690584 0.01014 0.01897 -0.0311864 -0.238281 -0.0147663 0.015668 -0.0493108 0.0169799 -0.0247375 -0.0873106 0.0286554 0.0686619 0.0521929 0.0755867 0.219897 0.0795081 -0.00178301
internal_weight=0 3248.43 4127.12 3400.95 726.168 53.0764 673.092 3354.57 546.515 3344.11 730.917 395.164 2613.2 912.502 812.292 706.383 101.413 60.8673 208.207
internal_count=717112 638109 79003 73277 5726 541 5185 72451 4213 72341 11746 3756 60595 20344 18422 13206 1865 1193 1795
is_linear=0
shrinkage=0.16


Tree=14
num_leaves=20
num_cat=0
split_feature=16 16 18 6 3 8 5 18 5 20 5 5 8 3 14 3 3 16 16
split_gain=361.794 136.831 126.35 97.3528 78.0615 90.3668 72.0598 87.2356 71.4732 109.364 57.0921 62.0357 49.8812 49.5105 46.2681 56.888 125.647 249.052 1097.48
threshold=0.72341177267755352 0.52500798590608588 0.85661819817118878 1.0000000180025095e-35 0.24490377692727053 0.75000000000000011 0.41999999999999998 0.10020986358866736 0.82000000000000017 0.37500000000000006 0.32666666666666666 0.23333333333333331 0.75000000000000011 0.065369681651654812 0.35180052466742112 0.075406761486356166 0.094755415972489057 0.77554763955975892 0.76711161876736356
decision_type=2 2 2 2 2 2 2 2 2 2 2 2 2 2 2 2 2 2 2
left_child=1 2 6 -2 -4 -6 -1 -8 9 13 11 -3 -12 -9 15 -5 17 18 -17
right_child=3 10 4 14 5 -7 7 8 -10 -11 12 -13 -14 -15 -16 16 -18 -19 -20
leaf_value=-0.092152204353895692 -0.14262400754636356 0.054483564422336976 -0.10350882752990587 -0.1048467707015595 0.1224084149123514 2.4493096050487764 0.076379737258024841 -0.010480870622349385 -0.079808736461394941 -0.049328693909992796 0.0053250034765287167 0.29526751276784918 0.57855044599708227 0.15197502534074059 -0.071239119106753068 -0.14703828933073376 0.038960905522945961 -0.027934134464497822 5.0348022772534122
leaf_weight=233.00443780166097 699.25501969549805 195.92723241564818 712.68096301471815 31.041405363474041 30.355814848560843 0.23519008699804445 319.92979017784819 70.112415803130716 329.64127589506097 286.60477124340832 3831.9667357059661 31.741173821035773 3.6907538999803355 150.85783912288025 283.76858919975348 3.2179025779478234 40.301229433389381 5.9821474412456155 1.3388316689524797
leaf_count=23712 250253 34374 205260 3361 6020 51 6687 1778 47304 1983 83073 287 227 2680 45452 582 3141 807 80
internal_value=0 -0.00668648 -0.0394981 -0.107638 -0.0927423 0.156611 -0.0110092 0.00532908 -0.0218145 0.0158345 0.0105382 0.0883532 0.00591088 0.100394 -0.0406473 0.0650921 0.169169 0.655604 1.51977
internal_weight=0 6196.75 2133.42 1064.91 743.272 30.591 1390.15 1157.15 837.216 507.575 4063.33 227.668 3835.66 220.97 365.65 81.8815 50.8401 10.5389 4.55673
internal_count=717112 413436 295475 303676 211331 6071 84144 60432 53745 6441 117961 34661 83300 4458 53423 7971 4610 1469 662
is_linear=0
shrinkage=0.16


Tree=15
num_leaves=20
num_cat=0
split_feature=16 16 0 5 6 18 16 3 2 2 5 3 5 18 3 3 5 0 1
split_gain=332.535 101.868 104.293 78.8044 68.5238 64.8192 62.9829 54.742 52.7005 43.0494 44.1256 44.1908 44.1882 81.9899 72.5626 65.4666 56.3835 39.2794 39.0007
threshold=0.72341177267755352 0.52500798590608588 0.95591226031377119 0.3133333333333333 1.0000000180025095e-35 0.10020986358866736 0.11810913103661896 0.22098430106661751 0.9849227033665523 0.2982951615776202 0.32666666666666666 0.14573290589101887 0.79333333333333345 0.92257532603807535 0.058323403299037103 0.13391327508021478 0.41999999999999998 0.81921847762928546 0.60353117773045428
decision_type=2 2 2 2 2 2 2 2 2 2 2 2 2 2 2 2 2 2 2
left_child=1 2 3 -1 -2 -5 -7 -8 9 17 11 -11 13 -12 16 -16 -15 -3 -17
right_child=4 8 -4 5 -6 6 7 -9 -10 10 12 -13 -14 14 15 18 -18 -19 -20
leaf_value=-0.10186627082979191 -0.13945645071580554 0.076544866650142596 -0.098416261423503348 0.062471780239239216 -0.051397679789653851 0.032778521875031205 -0.065834190153817848 0.083798927685171776 -0.18930391759214971 0.035332242877161975 -0.012887838665488333 0.22675490045729865 0.0018890491267343956 0.32127115210384388 -0.83074976483994822 -0.40719887132361754 -0.2263170059607707 0.0088224796868809231 0.37883465515932058
leaf_weight=226.1255685724318 608.33295634691649 427.4844278851524 499.80834100022912 324.33290937659331 361.74634678714528 372.87265650811605 579.72867221641354 69.900995703879744 33.884851780254394 131.18997414829209 116.32311718771234 40.337097133975476 2837.6698172413744 5.859628964681181 8.7054718013387191 5.2395397960208347 23.129929683636874 451.22974297357723 2.1006040496286005
leaf_count=38343 250253 6195 168932 6038 53423 12687 65939 3536 1198 26021 3416 343 58440 68 99 41 239 21872 29
internal_value=0 -0.00586923 -0.0347568 -0.0145089 -0.106653 0.000158996 -0.019599 -0.049688 0.00879228 0.0104632 0.00177201 0.0806529 -0.00273926 -0.084134 -0.266934 -0.538093 -0.113643 0.0417968 -0.176048
internal_weight=0 6155.92 2072.77 1572.96 970.079 1346.84 1022.5 649.63 4083.15 4049.27 3170.56 171.527 2999.03 161.358 45.0352 16.0456 28.9896 878.714 7.34014
internal_count=717112 413436 295475 126543 303676 88200 82162 69475 117961 116763 88696 26364 62332 3892 476 169 307 28067 70
is_linear=0
shrinkage=0.16


Tree=16
num_leaves=20
num_cat=0
split_feature=16 13 19 9 3 0 0 0 16 0 1 2 18 1 1 18 16 3 3
split_gain=270.289 84.1685 95.0571 87.3475 78.2038 55.0739 54.8612 60.9203 58.0644 62.0503 44.7025 47.5659 53.1986 48.0628 40.2558 39.0418 36.8702 35.2266 71.8055
threshold=0.72341177267755352 0.63483146067415741 0.47196261682242996 0.75000000000000011 0.15729937284724024 0.49832945961650205 0.41451191167925622 0.46593550261475891 0.52508058505231991 0.96680708890180134 0.44084499307432751 0.031096777822569303 0.9861340128916205 0.51187432497574503 0.68968715486047993 0.36178983660620595 0.99808338253942142 0.092637856388815262 0.13655034076548422
decision_type=2 2 2 2 2 2 2 2 2 2 2 2 2 2 2 2 2 2 2
left_child=1 3 10 6 15 16 -1 -8 9 -9 -3 12 -12 -14 -15 -4 -2 -10 -19
right_child=5 2 4 -5 -6 -7 7 8 17 -11 11 -13 13 14 -16 -17 -18 18 -20
leaf_value=-0.11377762167224172 0.01167705737440884 -0.033496233255018271 -0.036831198322573484 -0.16570356358818386 0.035768515721732182 -0.11244265728402217 0.11607477120725455 0.0020042548734838222 0.011849367681786743 -0.088378847483990164 0.050994081170360465 0.021308781309100286 1.2629858891876438 -0.10560575638896845 0.66193493620861821 -0.10887111336025974 0.76761546915820744 0.10441561761186094 0.0066026006612639769
leaf_weight=86.25814215792343 76.380072338274204 524.39124536677264 290.93936777603813 71.747408529277891 163.66961826384068 801.07937241246736 146.8616079124622 1638.4075189826544 991.15549727156758 220.39126580907032 12.724039193242788 619.59280254109763 1.8057301491498945 2.8504838421940804 4.0207309350371361 575.74683875672054 1.4900918271159742 400.49917889223434 369.89756841352209
leaf_count=16899 5741 10148 27734 10682 17270 297892 2713 67371 40131 84524 262 12507 20 38 50 107048 43 8909 7130
internal_value=0 -0.00507631 -0.0301622 0.00895333 -0.0655623 -0.0999539 0.0122178 0.0151129 0.0110067 -0.0087119 0.00112832 0.0294809 0.262949 0.56381 0.347281 -0.0847204 0.0282768 0.0318216 0.0574864
internal_weight=0 6120.96 2195.74 3925.22 1030.36 878.95 3853.47 3767.21 3620.35 1858.8 1165.39 640.994 21.401 8.67694 6.87121 866.686 77.8702 1761.55 770.397
internal_count=717112 413436 175077 238359 152052 303676 227677 210778 208065 151895 23025 12877 370 108 88 134782 5784 56170 16039
is_linear=0
shrinkage=0.16


Tree=17
num_leaves=20
num_cat=0
split_feature=19 19 3 2 13 15 2 13 20 3 3 3 19 3 18 13 15 3 3
split_gain=200.173 268.148 44.8774 44.7986 42.601 44.8056 50.9069 41.6811 48.8417 58.3729 66.6456 58.2761 55.7048 42.536 87.587 110.135 61.361 87.7167 59.0436
threshold=0.92990654205607481 0.96261682242990665 0.19892644653664907 0.96912119024628074 0.27528089887640456 0.58932461873638353 0.95406029981156315 0.10674157303370786 0.37500000000000006 0.20296458341714327 0.12839638384911714 0.26682637953492766 0.014018691588785001 0.13655034076548422 0.98530954879328447 0.66853932584269671 0.82679738562091509 0.14455725456631299 0.14098729741689633
decision_type=2 2 2 2 2 2 2 2 2 2 2 2 2 2 2 2 2 2 2
left_child=7 2 -2 4 5 6 -3 -1 11 10 -10 12 -9 -14 -15 18 -17 -18 -16
right_child=1 3 -4 -5 -6 -7 -8 8 9 -11 -12 -13 13 14 15 16 17 -19 -20
leaf_value=0.06009572120272088 -0.10354001292798827 0.13902395587179825 0.017224197641662706 -0.20577272825092294 -0.0064915236428611731 0.024603566350186658 0.77020662431262854 -0.33320349993915876 -0.048532946354181358 -0.19491124008781038 0.086330709364386499 0.17893052702121423 0.018510791577236046 0.0043322922859586072 -0.27931276899986762 -0.25297457462496409 0.079370274448480493 0.83139566352417482 0.016941808749676684
leaf_weight=344.45006276387721 1341.8559989757287 75.219087324105203 83.392861597472802 24.911085104336962 916.95928514422849 200.40101861394942 3.2494671270251265 12.038959697820244 497.34257608721964 55.03819998446852 115.34552973415703 51.371616570279002 2478.3609565119259 527.39413297269493 86.724710557144135 10.871718442067502 30.359914174303412 4.3917532861232749 21.32457646401599
leaf_count=4728 590790 753 31001 629 12221 2680 35 247 3987 492 891 769 57202 9235 631 122 384 44 271
internal_value=0 -0.0493269 -0.0964613 0.0056976 0.0101499 0.0648919 0.167257 0.00676438 0.00203574 -0.0373374 -0.0230973 0.0102001 0.00745081 0.00877494 -0.0266248 -0.132839 0.0751199 0.179079 -0.220773
internal_weight=0 2645.99 1425.25 1220.74 1195.83 278.87 78.4686 4235.01 3890.56 667.726 612.688 3222.84 3171.47 3159.43 681.067 153.673 45.6234 34.7517 108.049
internal_count=717112 638109 621791 16318 15689 3468 788 79003 74275 5370 4878 68905 68136 67889 10687 1452 550 428 902
is_linear=0
shrinkage=0.16


Tree=18
num_leaves=20
num_cat=0
split_feature=16 13 15 14 13 0 11 13 8 16 5 16 15 13 15 2 0 13 3
split_gain=181.107 61.0318 105.917 46.3151 46.9215 45.9192 45.8079 93.2862 44.8531 44.9595 43.8934 67.3321 43.7006 54.0163 57.3209 49.51 43.4627 37.9958 35.7209
threshold=0.72341177267755352 0.63483146067415741 0.62854030501089342 0.23258489822384401 0.38764044943820231 0.48481987216734457 1.0000000180025095e-35 0.34269662921348315 0.75000000000000011 0.6640740704889313 0.91333333333333344 0.71295749561985167 0.41938997821350765 0.45505617977528096 0.41721132897603491 0.9122104305924047 0.41451191167925622 0.99438202247191021 0.12350095786104977
decision_type=2 2 2 2 2 2 2 2 2 2 2 2 2 2 2 2 2 2 2
left_child=1 12 8 4 6 -4 -2 -8 9 18 -11 -12 13 14 -1 -16 -14 -10 -3
right_child=3 2 5 -5 -6 -7 7 -9 17 10 11 -13 16 -15 15 -17 -18 -19 -20
leaf_value=-0.096028291255424336 0.15885003749627072 -0.12055639396840706 -0.093354928723443087 -0.10083208340653083 -0.061620756923754787 0.0083772334533282009 -0.07885562046442135 3.5937457372011585 0.2845413053302534 0.028188584788033558 0 1.9878703023161908 -0.11923627263893277 -0.032126316719531957 0.13818476540102853 -0.12069638978148231 0.0049910392133169518 2.038433360016545 -0.042300179749952226
leaf_weight=35.980898334179074 27.791876120958936 402.37350453343242 124.09510111866985 667.60458055585468 53.113748385105282 1317.7278871247545 0.38717330549843509 0.10260712611488998 3.2973616225644942 59.587744120159186 1.0139155527576793 0.55027269292622794 73.439080966054462 124.40533879003488 247.28456525527872 20.259257007390261 3433.403400506475 0.17078447202220548 239.06773051072378
leaf_count=7442 2799 59887 14183 293924 6849 76247 82 22 527 3435 44 19 16829 6258 2939 296 204595 15 20720
internal_value=0 -0.00356351 -0.0252564 -0.0869376 0.0267965 -0.000379308 0.192675 1.48626 -0.0760198 -0.078932 0.051849 0.838746 0.00827465 0.0565336 0.0929225 0.118446 0.0023783 0.481705 -0.0914372
internal_weight=0 6082.66 2147.88 749 81.3954 1441.82 28.2817 0.48978 706.061 702.593 61.1519 1.56419 3934.77 427.93 303.525 267.544 3506.84 3.46815 641.441
internal_count=717112 413436 175077 303676 9752 90430 2903 104 84647 84105 3498 63 238359 16935 10677 3235 221424 542 80607
is_linear=0
shrinkage=0.16


Tree=19
num_leaves=20
num_cat=0
split_feature=16 6 2 0 5 3 19 18 18 3 20 5 18 7 7 0 3 3 3
split_gain=143.751 83.1118 52.0774 47.22 42.4525 44.8668 62.6568 50.5842 69.7385 50.1194 73.9678 81.3939 103.948 76.0775 122.474 72.5967 69.7097 57.8495 65.2976
threshold=0.72341177267755352 1.0000000180025095e-35 0.9849227033665523 0.41451191167925622 0.88666666666666683 0.00025663185259060007 0.13551401869158888 0.81479538300104937 0.87835406985459452 0.071214645494307616 0.37500000000000006 0.82000000000000017 0.093764053365312558 0.35000000000000003 0.45000000000000007 0.91349506101104028 0.21118096429765407 0.13772668568979177 0.11028649825143537
decision_type=2 2 2 2 2 2 2 2 2 2 2 2 2 2 2 2 2 2 2
left_child=2 -2 3 -1 5 6 -5 9 -9 -7 11 12 -11 -14 -15 17 -12 18 -13
right_child=1 -3 -4 4 -6 7 -8 8 -10 10 16 15 13 14 -16 -17 -18 -19 -20
leaf_value=-0.10148499732160826 -0.12719656794762085 -0.014985212931351554 -0.16946514535099311 -0.91784272706334136 0.061186633824256043 -0.023792803777068331 0.040077858953124268 -0.082313066077142505 -0.011544957101801491 -0.011238174161588366 -0.001933950142498314 0.034241930042492867 0.2469599079311679 -0.1200200407599383 0.14994956652000868 -0.078181155380875653 -0.15992186597661892 -0.014414813988511061 0.17840575332004752
leaf_weight=119.09223676810507 401.95818310009736 292.13759012023957 47.618217617971823 1.551902588456868 278.14016916649416 955.64924526435789 628.26615835924167 451.7854271660326 1691.335048545734 180.72906291589607 280.18937097862363 305.91966982686426 111.79464530246332 55.89685576595366 183.99825430288911 193.37891692912672 95.890862138476223 374.49773216270842 109.19253060163464
leaf_count=29445 250253 53423 4366 69 5286 33299 14948 189689 34697 42088 1751 7732 1540 2384 2532 34610 822 5225 2953
internal_value=0 -0.080009 -0.00314728 -0.00182287 0.000190088 -0.00282788 0.0374015 -0.00790971 -0.0264771 0.00606178 0.0211548 0.0369222 0.087298 0.137958 0.086931 0.00960849 -0.0423229 0.0311432 0.0722695
internal_weight=0 694.096 6064.93 6017.31 5898.22 5620.08 629.818 4990.26 2143.12 2847.14 1891.49 1515.41 532.419 351.69 239.895 982.989 376.08 789.61 415.112
internal_count=717112 303676 413436 409070 379625 374339 15017 359322 224386 134936 101637 99064 48544 6456 4916 50520 2573 15910 10685
is_linear=0
shrinkage=0.16


Tree=20
num_leaves=20
num_cat=0
split_feature=16 6 9 2 14 20 1 0 2 14 14 1 7 7 2 14 0 19 3
split_gain=112.486 74.5243 51.9067 42.7932 36.6067 79.6895 72.9108 57.3165 59.5328 103.349 74.3961 51.8915 44.6996 127.27 41.2866 39.8874 45.9252 41.0775 60.205
threshold=0.72341177267755352 1.0000000180025095e-35 0.75000000000000011 0.9849227033665523 0.30175581350997432 0.37500000000000006 0.72170389851296368 0.99934631028471832 0.88868862909803426 0.13858975499980933 0.26628354926067677 0.29990297956468953 0.55000000000000016 0.35000000000000003 0.41737603944987683 0.047703202675041002 0.97029343404997104 0.69158878504672905 0.22637773156863103
decision_type=2 2 2 2 2 2 2 2 2 2 2 2 2 2 2 2 2 2 2
left_child=2 -2 3 4 5 7 14 15 -9 -10 11 -11 13 -6 -7 -1 -17 -18 -19
right_child=1 -3 -4 -5 12 6 -8 8 9 10 -12 -13 -14 -15 -16 16 17 18 -20
leaf_value=-0.0053132989470074396 -0.12220330308996488 -0.012737696662455913 -0.11676210742373888 -0.16323698476377654 -0.0058775620584977442 0.0040372165390292272 0.073069213051519824 0.2838170553600044 -0.091827449913733025 0 -0.023759805216984682 4.6000718436707269 0.0078051713001793289 -0.11038215701672983 -0.12296681639685764 0.05247669648801806 -0.093261300241838527 0.24984735892933199 1.4709920755659098
leaf_weight=309.29060564062092 355.40651381062344 289.02363439651072 100.50928378733806 41.095359093160369 1701.3614225540077 98.887347294948995 109.62278725905344 7.0375311535317442 0.50008156313560892 0.068591971416026354 0.15169992414303124 0.2066924290265888 2430.0213552172063 361.67331895313691 192.57108475640416 665.88727364863735 8.8596311928704363 38.089255065191537 0.88014082843437691
leaf_count=7315 250253 53423 17711 4137 133229 653 754 2075 148 20 44 60 65790 161983 1378 14203 207 3609 120
internal_value=0 -0.0731525 -0.00285078 -0.000925247 0.000203286 0.0224804 -0.0379977 0.0460267 0.468522 1.55728 2.92742 3.91303 -0.00689413 -0.0242151 -0.0798482 0.0426308 0.0634255 0.214671 0.285206
internal_weight=0 644.43 6066.71 5966.2 5925.11 1432.05 401.081 1030.97 7.9646 0.927066 0.426984 0.275284 4493.06 2063.03 291.458 1023.01 713.716 47.829 38.9694
internal_count=717112 303676 413436 395725 391588 30586 2785 27801 2347 272 124 80 361002 295212 2031 25454 18139 3936 3729
is_linear=0
shrinkage=0.16


Tree=21
num_leaves=20
num_cat=0
split_feature=19 19 14 15 2 2 0 3 18 3 2 2 14 3 2 3 0 0 15
split_gain=81.4299 159.504 63.4899 33.7621 34.3063 37.8429 44.1594 43.2936 99.087 41.3032 30.5568 64.0053 30.31 52.4673 47.8899 48.0206 29.8666 58.1077 42.6376
threshold=0.94859813084112166 0.96261682242990665 0.26628354926067677 0.91938997821350765 0.48566801353745775 0.50453514207768124 0.46876815804764671 0.10967058180521781 0.98163693599160551 0.11389321617973662 0.11535901450307966 0.11957306383417551 0.089763475858094008 0.19497431600675288 0.35197390008156232 0.26682637953492766 0.96579023823358534 0.95613015688553193 0.43899782135076254
decision_type=2 2 2 2 2 2 2 2 2 2 2 2 2 2 2 2 2 2 2
left_child=16 2 12 4 10 6 -6 8 -7 -9 -3 -12 -2 -14 15 -15 17 -1 -18
right_child=1 3 -4 -5 5 7 -8 9 -10 -11 11 -13 13 14 -16 -17 18 -19 -20
leaf_value=0.0035453592991436644 -0.036278448794223477 -0.022612975322717294 -0.089142719355329345 -0.12604149104610946 -0.49568995563361468 -0.0069933646424296895 -0.056180677210124597 0.2087664785372198 -0.25063807556177131 0.021626791974595758 0.49837189914959545 0.058901248424615693 0.091115626377232112 1.9211301093948259 -0.016951206061943527 0.26626913742730912 0.13981373145953843 -0.13568098697563888 0.0081932223557371949
leaf_weight=3979.4287931292783 55.155647209146537 123.20432995213196 1001.5930845061089 46.821178565733135 8.3669113200157899 334.85336307319812 18.989232706837356 33.918123384471983 48.810675830696709 265.97659779014066 8.5193974273279292 338.5282921101898 43.14066301996354 0.95319712581112914 1.2309464853024108 0.89868150756228715 98.123453093925491 78.049107218859717 176.28308674995787
leaf_count=71980 13218 1579 600598 504 122 6372 227 258 338 2442 73 4403 7671 59 182 21 1223 1627 4215
internal_value=0 -0.0327676 -0.0769255 0.00688774 0.012191 -0.00996804 -0.193808 -0.0025328 -0.0381466 0.0429707 0.0457145 0.0700164 0.0435574 0.138911 0.756583 1.23009 0.00431691 0.000856721 0.0553845
internal_weight=0 2330.96 1102.97 1227.99 1181.17 710.915 27.3561 683.559 383.664 299.895 470.252 347.048 101.379 46.2235 3.08283 1.85188 4331.88 4057.48 274.407
internal_count=717112 638067 621749 16318 15814 9759 349 9410 6710 2700 6055 4476 21151 7933 262 80 79045 73607 5438
is_linear=0
shrinkage=0.16


Tree=22
num_leaves=20
num_cat=0
split_feature=16 6 13 13 16 16 2 13 13 13 13 3 13 5 13 2 2 5 16
split_gain=70.749 65.2827 46.4139 42.3624 40.5923 47.3122 59.3174 66.211 121.653 36.3111 42.6766 33.364 53.8129 50.5973 36.2301 32.7005 62.5638 32.1141 31.2327
threshold=0.72341177267755352 1.0000000180025095e-35 0.27528089887640456 0.27528089887640456 0.8712429941823886 0.8725062193268609 0.50824059924812748 0.18539325842696633 0.15168539325842692 0.35393258426966295 0.53370786516853941 0.00025663185259060007 0.45505617977528096 0.85333333333333339 0.50000000000000011 0.55138187068165434 0.54769281970993855 0.82000000000000017 0.48045630983379645
decision_type=2 2 2 2 2 2 2 2 2 2 2 2 2 2 2 2 2 2 2
left_child=3 -2 4 -1 -3 6 -6 8 -8 -5 11 12 -11 -13 -15 16 -16 -14 -12
right_child=1 2 -4 9 5 -7 7 -9 -10 10 18 13 17 14 15 -17 -18 -19 -20
leaf_value=0.02237313984196351 -0.11369965405422178 -0.0040219446562906941 -0.03888856291872031 -0.048952397553847511 0.01842780690547061 0.17956370961287291 0.60289324310277825 0.035543708213355688 3.8303892319568438 0.017451264606504896 -0.045179471612284361 -0.00020543740662869287 -0.056005382882664934 0.093192810449101368 0.21167958538769166 0.066385737347976315 1.3465935957537341 0.24227076942709599 -0.0061120590396216761
leaf_weight=1364.3978515914641 294.69439701689407 30.131710589743307 218.66836531636454 533.55486232088879 1.4896183421369671 23.358355535310693 0.86863062041811623 0.69754402991384257 0.36522926506586373 126.07769245456439 711.63370995124569 1154.8776315464638 10.845268910750745 66.208504127920605 3.1599585067015123 3.7972764483420178 2.0040848986245692 56.916940107592382 1989.1410862986813
leaf_count=82432 250253 7935 43011 32015 391 1541 258 203 84 2131 148294 73009 493 760 41 103 24 954 73180
internal_value=0 -0.061374 -0.00531906 -0.0024159 0.123069 0.265632 0.806501 1.34804 1.97043 -0.00968072 -0.00459464 0.0178128 0.079483 0.00807 0.135086 0.434064 0.688891 0.194272 -0.0164145
internal_weight=0 570.274 275.579 6022.61 56.9111 26.7794 3.42102 1.9314 1.23386 4658.22 4124.66 1423.89 193.84 1230.05 75.1698 8.96132 5.16404 67.7622 2700.77
internal_count=717112 303676 53423 413436 10412 2477 936 545 342 331004 298989 77515 3578 73937 928 168 65 1447 221474
is_linear=0
shrinkage=0.16


Tree=23
num_leaves=20
num_cat=0
split_feature=9 6 7 7 19 15 4 19 0 13 8 13 20 1 13 19 15 15 2
split_gain=61.453 59.5893 74.6173 75.9626 43.4109 42.6688 46.0415 42.171 39.5424 112.713 35.2091 34.3194 36.765 45.5334 79.0089 41.804 63.3827 53.4699 38.8032
threshold=0.75000000000000011 1.0000000180025095e-35 0.35000000000000003 0.55000000000000016 1.0000000180025095e-35 0.73965141612200447 0.41666666666666669 0.39719626168224303 0.83294596165020363 0.23033707865168543 1.0000000180025095e-35 0.27528089887640456 0.37500000000000006 0.46408413319258263 0.43258426966292135 0.16822429906542061 0.82897603485838789 0.46296296296296297 0.26490151593276273
decision_type=2 2 2 2 2 2 2 2 2 2 2 2 2 2 2 2 2 2 2
left_child=1 2 4 -4 -1 6 -6 8 9 -7 -5 -3 15 14 -14 16 17 -13 -15
right_child=-2 11 3 10 5 7 -8 -9 -10 -11 -12 12 13 18 -16 -17 -18 -19 -20
leaf_value=-1.4759425280489651 -0.11789829503322061 0.027380153132853201 -0.10102918383565898 0.0035503193824696854 -0.15545567844455857 2.0488325175966864 0.061977172339142225 -0.067382855682491499 0.023094358940984765 0.13367201596278322 0.25005828867290592 0.0093942676309732402 -0.14865536179374453 0.087645601147571972 -0.0094213862129917478 0.0026004285839064706 -0.19614172528125981 0.46156925415503119 -0.02268858236329218
leaf_weight=0.30943020060658355 124.7080918145366 1180.0987240325521 517.03320310101844 109.86316689517116 26.91984693123959 0.74675820115953584 305.39553439174779 283.31083113729255 124.36353845708072 4.9996361054945737 16.975549428258091 10.920412321574988 185.08200071449392 105.17274808930233 239.48434262257069 2937.0462224144112 8.8749659210443479 17.442569989711046 361.37140076910146
leaf_count=8 29940 28545 346696 13058 25740 24 24848 125922 1355 145 2481 146 1102 735 2151 111104 130 204 2778
internal_value=0 -0.00457966 -0.0339123 -0.0738085 0.000509033 0.00153868 0.0442326 -0.0327456 0.042541 0.445782 0.0370096 0.00349867 -0.00378921 -0.0322956 -0.070197 0.00474767 0.172759 0.289316 0.0021766
internal_weight=0 6435.41 1389.92 643.872 746.046 745.736 332.315 413.421 130.11 5.74639 126.839 5045.49 3865.39 891.11 424.566 2974.28 37.2379 28.363 466.544
internal_count=717112 687172 540277 362235 178042 178034 50588 127446 1524 169 15539 146895 118350 6766 3253 111584 480 350 3513
is_linear=0
shrinkage=0.16


Tree=24
num_leaves=20
num_cat=0
split_feature=13 15 1 18 18 19 20 15 19 15 19 3 5 5 2 1 14 3 3
split_gain=44.7868 84.7715 40.0218 34.2285 66.0065 50.8158 36.6809 64.4832 59.8364 59.1543 56.0281 37.6991 37.6938 35.6119 35.5202 33.5028 67.3128 33.4989 32.091
threshold=0.63483146067415741 0.62854030501089342 0.96969179231524949 0.49842602308499478 0.46334882326487781 0.94859813084112166 1.0000000180025095e-35 0.57189542483660138 0.28504672897196265 0.72875816993464071 0.51869158878504684 0.21118096429765407 0.82000000000000017 0.91333333333333344 0.73691488464098576 0.97345972431551797 0.26628354926067677 0.1275217547515041 0.085957798625840409
decision_type=2 2 2 2 2 2 2 2 2 2 2 2 2 2 2 2 2 2 2
left_child=3 17 -3 4 6 14 7 10 9 -9 -1 -8 -12 -5 -6 16 18 -2 -4
right_child=1 2 15 13 5 -7 11 8 -10 -11 12 -13 -14 -15 -16 -17 -18 -19 -20
leaf_value=-0.09144244720920737 -0.092690731145264479 -0.0067045430532233913 1.4414893913699709 -0.0092291496537773455 0.30265513686735857 -0.090784362417924314 -0.0011873998650654754 0.35029978513483179 0.05027606960837102 0.026811228708806804 0.15727061827634092 -0.13228777198512673 -0.015872310458455819 0.081338377410098625 0.03911568223376144 0.07035164682424902 0.11760908121664063 -0.021936466485732029 0.33099004405857929
leaf_weight=150.81602799170651 489.56772165396251 1459.630395875196 1.692462053848429 2856.462711541697 46.356129296589643 15.732970487326382 347.89364271773957 35.855482842540368 447.13009240181418 24.421470165951177 51.751463094260544 66.819331648759544 84.161456139700022 115.42109795508441 18.51032612239942 33.8934695845237 7.0023577771498822 264.7118285902543 1.3302543755853546
leaf_count=6947 144335 123311 30 338262 624 5669 2289 431 45806 314 540 532 8022 3794 403 3443 421 31925 14
internal_value=0 -0.0241288 -0.0021569 0.00374022 0.0255102 0.165544 0.0161345 0.03628 0.0705513 0.220024 -0.0243191 -0.0224027 0.0500719 -0.0057011 0.228049 0.147966 0.402298 -0.0678934 1.00861
internal_weight=0 2257.83 1503.55 4261.33 1289.45 80.5994 1208.85 794.136 507.407 60.277 286.729 414.713 135.913 2971.88 64.8665 43.9185 10.0251 754.28 3.02272
internal_count=717112 303479 127219 413633 71577 6696 64881 62060 46551 745 15509 2821 8562 342056 1027 3908 465 176260 44
is_linear=0
shrinkage=0.16


Tree=25
num_leaves=20
num_cat=0
split_feature=6 7 7 2 0 2 0 7 2 13 19 2 15 13 18 18 2 2 19
split_gain=37.797 54.505 62.238 37.0674 65.4773 62.821 35.0265 32.8146 31.4468 30.7992 28.8762 33.6297 28.2924 26.0696 29.0875 48.7723 37.7375 34.2744 31.1377
threshold=1.0000000180025095e-35 0.35000000000000003 0.55000000000000016 0.95034781141308955 0.49832945961650205 0.95406029981156315 0.41451191167925622 0.45000000000000007 0.9849227033665523 0.87078651685393271 0.29439252336448601 0.71151105777794466 0.64596949891067557 0.028089887640449451 0.050966871533503259 0.056888022785189611 0.086294261580432505 0.077561476370386309 0.34579439252336458
decision_type=2 2 2 2 2 2 2 2 2 2 2 2 2 2 2 2 2 2 2
left_child=1 6 3 -3 5 -5 -1 -7 13 -8 12 -12 -4 -2 16 -16 17 18 -15
right_child=8 2 10 4 -6 7 9 -9 -10 -11 11 -13 -14 14 15 -17 -18 -19 -20
leaf_value=-0.12017507803188428 0.070053909849738 -0.10594775171952822 0.80199895201687299 1.6864137104467427 -0.090851006652611407 -0.14871882133105202 0.022106329487613211 0.44031825513579548 -0.15881390732911047 -0.081658753222573391 -0.051677714168001779 0.11648845265650504 -0.014706496453227885 0.6786089515589302 -0.11263525911340638 3.9056089784359404e-05 0.039738091326615071 0.70292319401739012 0.025905843857637216
leaf_weight=57.510031814512331 140.15517699788325 425.8737865659059 2.2228672215715042 0.6735238847322752 22.926880378101487 3.3324940184247662 607.14085854956647 7.6472490695305169 31.09947122563608 83.032896509743296 72.652263182797469 52.041193067387212 1.8866137969307599 2.1452110232785335 100.24493783945218 4696.6568653858494 177.37420736276545 3.832780133932828 9.6356241819448751
leaf_count=28441 3223 328909 47 35 17356 324 126243 72 1950 23358 11912 3533 47 25 6625 162459 2353 33 167
internal_value=0 -0.0291132 -0.065495 -0.0929974 0.065726 0.371464 -0.000409054 0.260645 0.00106889 0.00957942 0.03269 0.018453 0.440065 0.00204741 0.000131315 -0.00231686 0.0610053 0.298035 0.155438
internal_weight=0 1336.94 589.257 460.454 34.5801 11.6533 747.684 10.9797 5161.14 690.174 128.803 124.693 4.10948 5130.04 4989.89 4796.9 192.988 15.6136 11.7808
internal_count=717112 540277 362235 346696 17787 431 178042 396 176835 149601 15539 15445 94 174885 171662 169084 2578 225 192
is_linear=0
shrinkage=0.16


Tree=26
num_leaves=20
num_cat=0
split_feature=9 6 16 16 2 1 2 0 13 7 1 1 2 2 1 13 2 2 1
split_gain=50.8486 34.247 55.8371 37.4799 28.4569 40.8167 51.254 139.94 236.805 164.383 85.2117 123.047 64.4371 41.3351 34.432 30.5479 40.146 58.5676 41.7696
threshold=0.75000000000000011 1.0000000180025095e-35 0.72341177267755352 0.18634748855353464 0.77328977096946594 0.90833399437403539 0.72548679535376481 0.97552295177222559 0.84831460674157322 0.75000000000000011 0.92768316420861252 0.92411354441888449 0.72973600082499768 0.48265864794172531 0.96969179231524949 0.43258426966292135 0.11957306383417551 0.09372158212005581 0.92411354441888449
decision_type=2 2 2 2 2 2 2 2 2 2 2 2 2 2 2 2 2 2 2
left_child=1 2 3 -1 5 -3 13 10 -9 -10 11 -8 14 15 -12 16 17 -7 -19
right_child=-2 4 -4 -5 -6 6 7 8 9 -11 12 -13 -14 -15 -16 -17 -18 18 -20
leaf_value=-0.073733405306025332 -0.11093592545341766 0.0055549609714548214 -0.098260545573611469 0.0035835004496198308 -0.015402754005411813 0.067561552716272844 -0.051294577452108088 0.33486556028554826 7.2298682282252642 -0.0045995231056823746 0.015296530342789296 1.7637324923505133 -0.070656722533394417 -0.024780261224378798 0.95039608167272049 0.030361413244008477 0.090841558404453238 1.0776879564668009 0.3916798927689944
leaf_weight=196.21740665356629 112.68834398011677 3245.6404081822848 224.78924630163237 876.0873897196725 1467.0058010914363 12.314404033008032 1.7914705409202787 0.84149926016107091 0.083620430435985327 0.10572244424838573 1.6339327495079512 1.7852432387880981 17.05757847847417 125.41388912196271 2.6204262190731242 94.339306293288246 63.081921598641202 2.8915087829809645 11.240483161993323
leaf_count=121770 29940 97135 250253 168254 39573 331 53 129 27 18 52 31 402 3656 24 3682 1599 42 141
internal_value=0 -0.00259594 -0.0257844 -0.0105607 0.00336017 0.0110519 0.0641942 0.279576 1.94817 5.22196 0.194849 0.895828 0.0692272 0.0459233 0.611665 0.0942108 0.161095 0.32613 0.546239
internal_weight=0 6344.94 1297.09 1072.3 5047.85 3580.84 335.201 25.9195 1.03084 0.189343 24.8887 3.57671 21.3119 309.282 4.25436 183.868 89.5283 26.4464 14.132
internal_count=717112 687172 540277 290024 146895 107322 10187 736 174 45 562 84 478 9451 76 5795 2113 514 183
is_linear=0
shrinkage=0.16


Tree=27
num_leaves=20
num_cat=0
split_feature=3 0 18 3 3 18 5 1 19 18 13 0 18 16 15 3 3 13 16
split_gain=42.0659 44.5079 72.359 36.1591 40.5122 38.7159 35.7961 34.171 55.9245 45.6459 50.3361 40.0482 34.7879 32.7758 33.6267 30.8288 30.256 29.5073 29.0053
threshold=0.15526157721775005 0.48641778036025568 0.23856992954579517 0.020985549545900303 0.014356818153443602 0.019412381951731353 0.28666666666666668 0.61184198483064145 0.3785046728971963 0.9882326487782942 0.4662921348314607 0.48772515979081932 0.98665867186328893 0.10829856640885901 0.57407407407407418 0.084516498653723168 0.058323403299037103 0.17415730337078653 0.64296223876407232
decision_type=2 2 2 2 2 2 2 2 2 2 2 2 2 2 2 2 2 2 2
left_child=1 6 3 4 -3 -6 -1 9 -9 11 18 16 -13 14 15 -8 -4 -5 -11
right_child=-2 2 7 17 5 -7 13 8 -10 10 -12 12 -14 -15 -16 -17 -18 -19 -20
leaf_value=-0.086802194737092539 0.030593943258836895 0.06045529288055685 -0.050678085295462139 0.08772635299424239 0.57864560734369941 0.096601078895971915 0.67863335140208036 0.056211211287691583 -0.031843823759748029 -0.089294359323206812 -0.074405236872753439 -0.053282498205099262 -1.3215574816887281 0.01035818028505932 -0.049833276387908056 0.17067130366223981 -0.40013409253808974 -0.011071046277541706 0.14276903954014056
leaf_weight=97.185717120417394 772.916415787593 152.4951721590478 11.190719421952965 90.784279672370758 7.7777585454750833 9.5833193479338643 4.8178744243923601 243.15504792972934 764.43171172292205 16.328874343074858 68.326203784090467 1399.741356114595 0.35530861536972125 2158.9541842613835 7.9771241551497942 8.6495622461661679 15.005848185392095 517.17743362230249 82.171842339390423
leaf_count=32699 72597 5978 150 6864 85 128 58 3765 193310 271 1041 308260 12 34583 307 72 118 56118 696
internal_value=0 -0.00919428 -0.0208485 0.0219512 0.0871747 0.317599 0.00808671 -0.0336559 -0.0105712 -0.0482429 0.0308543 -0.0575088 -0.0538045 0.0123311 0.208282 0.360833 -0.252974 0.00367963 0.104034
internal_weight=0 5656.11 3378.52 777.818 169.856 17.3611 2277.58 2600.71 1007.59 1593.12 166.827 1426.29 1400.1 2180.4 21.4446 13.4674 26.1966 607.962 98.5007
internal_count=717112 644515 576796 69173 6191 213 67719 507623 197075 310548 2008 308540 308272 35020 437 130 268 62982 967
is_linear=0
shrinkage=0.16


Tree=28
num_leaves=20
num_cat=0
split_feature=9 3 3 13 3 3 3 18 13 18 15 16 13 15 15 18 3 18 15
split_gain=38.7162 36.7026 44.5234 70.7187 49.8339 60.5779 51.5763 76.7493 54.3733 38.8491 32.3367 49.8263 40.0864 51.6887 37.0318 34.8259 100.021 47.1608 32.7383
threshold=0.75000000000000011 0.14098729741689633 0.13655034076548422 0.34269662921348315 0.11028649825143537 0.11319961657814022 0.11273004964785942 0.51896267426173004 0.27528089887640456 0.32071653425273572 0.66993464052287599 0.64296223876407232 0.63483146067415741 0.44444444444444448 0.62418300653594783 0.98470993853994904 0.052844660046027205 0.97931344625993111 0.73965141612200447
decision_type=2 2 2 2 2 2 2 2 2 2 2 2 2 2 2 2 2 2 2
left_child=1 2 4 -4 10 6 8 9 -6 -8 12 18 13 -1 -14 17 -17 -15 -12
right_child=-2 -3 3 -5 5 -7 7 -9 -10 -11 11 -13 14 15 -16 16 -18 -19 -20
leaf_value=0.039078366016852988 -0.10143739125284248 0.026894030158243515 -0.14931886776253542 -0.013611959704938536 0.21243735645421857 0.015557302179259548 0.020769503154566351 -0.0021851493013382577 -0.035627059607598259 0.67417669667552038 0.079678157536718891 -0.065800769831755646 -0.092296287621663711 -0.020157594183685412 -0.020756967733164058 0.15662342436394788 -0.29977543878927437 0.93676307801927283 0.0078512261336191221
leaf_weight=442.72410049508835 102.15517284913221 941.54269727453357 140.6308212003787 326.73471456422703 43.803198080568109 532.80630117235705 2.9055306393420333 10.162445404974276 46.26165882521309 13.014736923156306 182.09983068908332 216.87932409533551 330.26380430092104 1084.3029998905258 423.5448161935783 18.159426831291057 36.984950707294047 1.1194854852510605 1500.810861690552
leaf_count=17015 29940 92893 3117 8837 2337 64535 79 2472 8319 269 4913 46965 122228 185733 27070 152 250 32 99956
internal_value=0 -0.00223066 -0.00735702 -0.0545269 -0.00283956 0.0384373 0.14305 0.340563 0.0850456 0.557656 -0.00916713 0.00632956 -0.0217704 -0.00729767 -0.0521377 -0.0253168 -0.149168 -0.0189835 0.0156413
internal_weight=0 6294.75 5353.21 467.366 4885.84 648.954 116.148 26.0827 90.0649 15.9203 4236.89 1899.79 2337.1 1583.29 753.809 1140.57 55.1444 1085.42 1682.91
internal_count=717112 687172 594279 11954 582325 78011 13476 2820 10656 348 504314 151834 352480 203182 149298 186167 402 185765 104869
is_linear=0
shrinkage=0.16


Tree=29
num_leaves=20
num_cat=0
split_feature=2 8 0 13 3 2 18 14 7 2 7 0 18 18 7 2 20 16 14
split_gain=29.004 26.8862 24.7826 24.0817 25.9465 26.3619 73.7181 79.4318 80.5549 22.0996 22.4237 21.855 43.9713 34.0095 33.9888 31.9409 31.6939 35.8886 33.5873
threshold=0.9849227033665523 0.75000000000000011 0.22174607786170822 0.83707865168539342 0.0082989192331007506 0.96912119024628074 0.87145855194123822 0.59672019291487099 0.75000000000000011 0.27790460029812419 0.8500000000000002 0.48641778036025568 0.49842602308499478 0.078324089341927708 0.25000000000000006 0.93866894165955739 1.0000000180025095e-35 0.19783267348775976 0.35463364398052216
decision_type=2 2 2 2 2 2 2 2 2 2 2 2 2 2 2 2 2 2 2
left_child=1 2 -1 11 -5 -6 -7 -8 -9 -3 -11 13 -13 -4 15 -14 17 -15 -18
right_child=-2 9 3 4 5 6 7 8 -10 10 -12 12 14 16 -16 -17 18 -19 -20
leaf_value=-0.10493869938388536 -0.14538797613048648 -0.089802664848797648 -0.10523493977116999 -0.10419720773482791 -0.020293355745623944 -0.068609107273170475 -0.063040985082589235 -0.10896267092428204 1.8381298097483494 0.46613764276466091 0.05946820106699767 0.019110297369032376 0.00021057926477636716 0.13461224460397017 -0.045843211278782929 -0.1423994120104814 -0.075646509968779821 0.023708372287911054 0.015270915098527472
leaf_weight=60.404350384196732 36.394459833740257 5.3141936674946946 58.245711315074004 96.932850570359733 818.4865549376118 8.1904041072120872 1.8080835384898808 0.70768385310657334 1.7223905446589924 7.8056563580175844 6.421510070678778 1156.730106136325 1312.7077931226704 78.613367568817921 794.55529216404102 41.269012674689293 167.40976661117747 1463.9118273539934 273.52843937370926
leaf_count=28062 8398 870 5529 4631 118923 707 460 562 142 162 1507 81223 111207 1009 321531 4295 1168 24733 1993
internal_value=0 -0.00252495 -0.00310828 -0.00212215 -0.0259151 -0.0167407 0.21257 0.738168 1.29985 0.183894 0.287063 0.0020044 -0.0060317 0.0150209 -0.0195756 -0.00414473 0.0185707 0.0293876 -0.0192298
internal_weight=0 6354.76 6335.22 6274.82 927.848 830.915 12.4286 4.23816 2.43007 19.5414 14.2272 5346.97 3305.26 2041.71 2148.53 1353.98 1983.46 1542.53 440.938
internal_count=717112 708714 706175 678113 125425 120794 1871 1164 704 2539 1669 552688 518256 34432 437033 115502 28903 25742 3161
is_linear=0
shrinkage=0.16


Tree=30
num_leaves=20
num_cat=0
split_feature=9 13 16 13 16 3 20 3 20 13 16 14 16 13 2 18 3 20 2
split_gain=29.4177 26.9931 40.995 39.231 31.6244 26.3708 47.5964 104.418 36.4621 29.7698 29.9401 25.5921 21.5596 20.6255 36.6352 37.4767 27.678 43.2686 69.701
threshold=0.75000000000000011 0.81460674157303381 0.36559478060538014 0.82584269662921361 0.079892940459020165 0.15295327774363723 0.37500000000000006 0.21118096429765407 1.0000000180025095e-35 0.69101123595505631 0.9671755060160494 0.93337613737979919 0.97797341903259227 0.83707865168539342 0.0039492064087300006 0.056888022785189611 0.13655034076548422 0.37500000000000006 0.42097134071456038
decision_type=2 2 2 2 2 2 2 2 2 2 2 2 2 2 2 2 2 2 2
left_child=5 -2 3 4 -3 13 8 -8 9 10 -7 -12 -9 16 15 -15 -1 18 -18
right_child=1 2 -4 -5 -6 6 7 12 -10 -11 11 -13 -14 14 -16 -17 17 -19 -20
leaf_value=0.0029536130074876653 -0.13597165845767636 2.1956396536430796 -0.15505964568315506 0.21235392376802847 -0.044335240312861332 0.068696485702193721 0.087429859820648589 -0.10847214426403591 1.3880840257191136 -0.0077024645522194117 0.25672806560909445 1.1360332177820263 -0.47251899256914337 1.9289053359428963 -0.030614588859346127 0.22337321922964165 -0.13542392318720622 0.087413097335043072 -0.0068371397259642678
leaf_weight=4144.7750106399926 74.002975060895551 0.28165965666994708 9.5844115227228013 9.0537451565032807 0.21041004476137459 363.76653154322412 108.84381410875358 141.27461002883501 0.32468099967809294 151.63370768917957 8.8791132275946403 0.79038019548170346 4.1443301513791075 0.26636349357431655 819.29117080196738 1.4619820355437694 167.14796309021767 64.077679389156401 304.74066879259772
leaf_count=471779 24267 41 3051 2442 139 45096 615 1080 31 25364 787 33 24 52 115806 408 11259 476 14362
internal_value=0 -0.092167 0.0761117 0.308278 1.47869 -0.00166951 0.0258622 -0.0309088 0.0533681 0.0519841 0.0762539 0.351788 -0.119592 -0.00557475 -0.0289637 0.667315 -0.00146776 -0.0356776 -0.0524559
internal_weight=0 93.1332 19.1302 9.54581 0.49207 6281.42 779.657 254.263 525.394 525.07 373.436 9.66949 145.419 5501.76 821.02 1.72835 4680.74 535.966 471.889
internal_count=717112 29940 5673 2622 180 687172 73030 1719 71311 71280 45916 820 1104 614142 116266 460 497876 26097 25621
is_linear=0
shrinkage=0.16


Tree=31
num_leaves=20
num_cat=0
split_feature=2 15 18 4 0 14 18 18 0 1 2 2 1 2 14 3 18 2 18
split_gain=23.4218 22.5078 29.067 21.5826 19.9406 19.4567 34.8279 51.9461 37.8473 34.4672 72.1168 50.0581 46.7526 92.902 28.7379 32.9863 29.9686 36.4758 27.477
threshold=0.9849227033665523 0.91067538126361658 0.94116324389147066 0.41666666666666669 0.89809703660662421 0.1942138252832061 0.81479538300104937 0.87835406985459452 0.96259442184776312 0.72549013625574366 0.27404211236839887 0.26063590426279926 0.72961197927789978 0.80927325227108682 0.047703202675041002 0.14098591021769316 0.9861340128916205 0.41342683304114686 0.98470993853994904
decision_type=2 2 2 2 2 2 2 2 2 2 2 2 2 2 2 2 2 2 2
left_child=1 3 4 -1 -3 14 -7 -8 9 -9 11 -11 13 -12 15 -5 17 -16 -19
right_child=-2 2 -4 5 -6 6 7 8 -10 10 12 -13 -14 -15 16 -17 -18 18 -20
leaf_value=-0.1452768761858734 -0.13761757933072497 -0.10054608893531018 -0.53049374560065521 -0.038265108668672977 -0.0057246424608008708 0.008295124299750373 -0.064944452044410322 -0.025443804749154312 0.091466400340401044 0.12460823492436175 0.034229112896265013 0.58415911875513082 -0.013115447666934106 1.4453926290787666 0.076617854795021201 0.068720702263216402 0.078300262742096921 -0.0060445272700091228 -0.22916563066674914
leaf_weight=25.867912938498193 32.520981778827263 93.994293485477101 2.9858303286600849 334.65732464235043 143.96914675584412 2683.6099255649315 487.37938130874227 1186.0606372284819 96.583638880227227 75.587977074028458 4.2152183992438941 6.4545559575199141 326.58729491123813 1.4859018101124091 160.19593863590853 94.363835892116185 284.34030337224249 335.02670694288099 14.563193581998346
leaf_count=30765 8398 34037 82 10540 59928 131650 386842 21524 7345 1494 68 76 5968 24 4041 1887 2822 9502 119
internal_value=0 -0.00189197 -0.0498374 0 -0.0432988 0.000619887 -0.0039104 -0.0189123 -0.00567617 -0.0115594 0.0281404 0.16229 -0.00501083 0.441258 0.0186606 -0.0146751 0.0366893 0.0134272 -0.0155107
internal_weight=0 6357.93 240.949 6116.98 237.963 6091.11 4867.96 2184.35 1696.98 1600.39 414.331 82.0425 332.288 5.70112 1223.15 429.021 794.126 509.786 349.59
internal_count=717112 708714 94047 614667 93965 583902 554991 423341 36499 29154 7630 1570 6060 92 28911 12427 16484 13662 9621
is_linear=0
shrinkage=0.16


Tree=32
num_leaves=20
num_cat=0
split_feature=2 8 15 15 5 0 0 2 2 6 17 2 2 1 1 2 3 3 16
split_gain=18.7691 18.1498 20.2072 18.7261 23.7224 19.7294 31.1826 32.1883 21.1613 20.0119 18.6081 33.2391 21.0804 35.3906 28.8759 21.7661 22.7097 21.1074 17.9285
threshold=0.9849227033665523 0.75000000000000011 0.65468409586056653 0.41721132897603491 0.32666666666666666 0.41451191167925622 0.46266705403834979 0.60115593388770672 0.75855934825203686 1.0000000180025095e-35 1.0000000180025095e-35 0.98137427695538471 0.74082190368155121 0.26924696277222171 0.76557971235576616 0.78772722585241939 0.057522295759193258 0.081679676283193961 0.97797341903259227
decision_type=2 2 2 2 2 2 2 2 2 2 2 2 2 2 2 2 2 2 2
left_child=1 3 -3 4 -1 -5 7 -7 9 -9 -8 12 -12 -14 15 16 -15 -17 -10
right_child=-2 2 -4 5 -6 6 10 8 18 -11 11 -13 13 14 -16 17 -18 -19 -20
leaf_value=0.17791227505818999 -0.12969190196763816 0.23071937992801184 -0.13749177405578972 -0.074868984957079096 -0.10354521584324854 -0.032724365835644531 0.00049774374137298268 0.24454543149587524 0 0.66380001158602886 -0.094473683869294847 1.0334166869719921 -0.16258727737759407 0.74237691750889878 -0.12650552419787933 -0.07684430244102379 0.080250016330650029 0.1997456670821853 0.56770371336935532
leaf_weight=8.2770835324190539 29.279252403124701 16.252778147521898 4.76228531775996 91.458407124504447 78.20357739640167 18.609788559784647 5899.7428166376658 11.942885178432336 10.802193251496643 4.0035842243814832 121.2809414335934 0.52070521988207374 19.738333768822486 2.9045960092917076 11.644008809962541 10.427240834978877 2.512890931306174 20.729297501791734 1.443273842334748
leaf_count=146 8398 2096 443 30622 23494 1093 641067 224 624 98 5782 20 768 47 654 504 168 848 16
internal_value=0 -0.00171699 0.146014 -0.00221581 -0.0760739 -0.00118521 -8.19811e-05 0.129738 0.237019 0.357715 -0.00108658 -0.0503776 -0.0545321 0.0165844 0.0906284 0.160504 0.451891 0.106769 0.0753372
internal_weight=0 6335.26 21.0151 6314.24 86.4807 6227.76 6136.3 46.8017 28.1919 15.9465 6089.5 189.758 189.237 67.9564 48.218 36.574 5.41749 31.1565 12.2455
internal_count=717112 708714 2539 706175 23640 682535 651913 2055 962 322 649858 8791 8771 2989 2221 1567 215 1352 640
is_linear=0
shrinkage=0.16


Tree=33
num_leaves=20
num_cat=0
split_feature=9 3 20 3 5 5 18 19 3 2 20 18 2 0 3 3 19 20 1
split_gain=22.6747 19.0031 28.4599 65.892 78.0565 33.5099 39.4322 31.4727 25.7253 40.1234 69.3742 37.5876 36.1007 35.487 34.0127 36.2184 30.2618 29.8369 33.0832
threshold=0.75000000000000011 0.14098729741689633 0.37500000000000006 0.21118096429765407 0.82000000000000017 0.27333333333333332 0.20049467845900168 0.13551401869158888 0.13655034076548422 0.60115593388770672 0.37500000000000006 0.51896267426173004 0.3950073593520021 0.48641778036025568 0.11028649825143537 0.11319961657814022 0.16822429906542061 1.0000000180025095e-35 0.59185821592233501
decision_type=2 2 2 2 2 2 2 2 2 2 2 2 2 2 2 2 2 2 2
left_child=1 8 5 -4 -5 6 -3 -8 14 10 13 -11 -12 -10 17 -16 -15 -1 -19
right_child=-2 2 3 4 -6 -7 7 -9 9 11 12 -13 -14 16 15 -17 -18 18 -20
leaf_value=-4.0372860354192504e-05 -0.084449813061369061 -0.054351511091896308 0.054895498234457031 -0.14761203767402228 0.15577495056829044 0.025977965293433644 0.00078424846389440464 0.2947749127421731 -0.053665935735727935 0.049168520182226033 0.36181459442004049 -0.089225370011301236 -0.038214618983338063 0.98403296473287982 0.11068637745255742 0.014508877627055031 -0.19095741318467024 -0.061108846190446188 0.0068689391957791049
leaf_weight=3402.0065298123072 84.06957156129647 18.307011195051018 146.9206071565859 125.63876877911389 26.016473728639539 604.11561121189152 12.657642148435114 36.384074852510821 113.86343635478988 162.7635383104498 12.251520460471513 72.410183313302696 10.583856549113987 0.36495987605303426 123.63698070499231 529.5185151664773 99.803019147773739 474.47404728634865 297.85651243504253
leaf_count=498093 29940 712 831 822 282 89562 144 540 951 1338 111 3367 95 7 13476 64535 6085 3851 2370
internal_value=0 -0.000893622 0.0196899 -0.0213645 -0.095324 0.0379701 0.144907 0.219532 -0.00466491 -0.0403071 -0.0867631 0.00644934 0.17699 -0.115117 -0.00117491 0.0327673 -0.184565 -0.00649097 -0.0348769
internal_weight=0 6269.57 970.04 298.576 151.655 671.464 67.3487 49.0417 5299.53 472.041 236.867 235.174 22.8354 214.031 4827.49 653.155 100.168 4174.34 772.331
internal_count=717112 687172 92893 1935 1104 90958 1396 684 594279 11954 7249 4705 206 7043 582325 78011 6092 504314 6221
is_linear=0
shrinkage=0.16


Tree=34
num_leaves=20
num_cat=0
split_feature=10 3 20 11 16 7 5 13 0 7 2 1 12 7 2 18 2 4 3
split_gain=17.1216 17.0766 20.8371 17.4303 15.3013 17.8977 13.8713 23.5848 27.7889 30.0768 48.5214 22.158 25.2635 17.3846 14.0258 14.0355 13.8309 15.1701 13.1399
threshold=0.44444444444444448 0.28515058740950261 0.37500000000000006 1.0000000180025095e-35 0.81588372520739172 0.25000000000000006 0.82000000000000017 0.27528089887640456 0.8452208018593842 0.25000000000000006 0.62814178705691559 0.89211205555182682 1.0000000180025095e-35 0.35000000000000003 0.090391123777738211 0.8731074801379104 0.9849227033665523 0.41666666666666669 0.31829077637377801
decision_type=2 2 2 2 2 2 2 2 2 2 2 2 2 2 2 2 2 2 2
left_child=-1 3 6 16 -5 -6 13 8 -8 -10 11 12 14 -3 -11 -16 17 -2 -15
right_child=1 2 -4 4 5 -7 7 -9 9 10 -12 -13 -14 18 15 -17 -18 -19 -20
leaf_value=-0.090559165056782798 -0.1359605811942125 0.31884948062303825 -0.016176791938290341 -0.14598648162825492 1.3061804986763006 0.074009753394853356 -0.0026265975314261666 -0.017022922345497706 0.13618883491278591 0 0.0018607214579878181 0.16771705646432492 0.22467533779968171 0.20118630215403133 2.6610192299563584 0 -0.11886611418418064 -0.00052533704461491003 -0.055510681357926174
leaf_weight=54.833111677522538 21.04743864343618 14.402828237973152 58.495627439580858 33.285771780501818 0.13824108551489134 3.5224980801576748 4.690248482860623 32.356170258601196 2.4658092538593337 0.054930115933530255 0.86484350054524828 0.30988199228886515 0.25709798588650301 11.216321325860919 0.54238644236465916 0.048238197981845587 25.395083456038265 6116.0014414301886 8.9711286178790015
leaf_count=41757 30714 117 382 16528 62 2564 77 5396 840 30 208 40 129 145 204 31 7462 610293 133
internal_value=0 -0.000922594 0.0553953 -0.00215037 -0.111428 0.189939 0.110461 0.0473124 0.270036 0.54314 0.964776 1.54274 1.88424 0.185219 2.31678 2.48888 -0.00148902 -0.000996844 0.0869021
internal_weight=0 6334.07 134.676 6199.39 36.9465 3.66074 76.1799 41.5896 9.23344 4.54319 2.07738 1.21253 0.902653 34.5903 0.645555 0.590625 6162.44 6137.05 20.1874
internal_count=717112 675355 7732 667623 19154 2626 7350 6955 1559 1482 642 434 394 395 265 235 648469 641007 278
is_linear=0
shrinkage=0.16


Tree=35
num_leaves=20
num_cat=0
split_feature=15 0 5 3 15 13 5 3 15 5 2 3 15 0 20 13 1 15 2
split_gain=15.5613 18.9627 16.6333 37.1615 21.3403 44.7446 33.3589 49.4699 28.5639 29.3454 27.4843 27.0276 33.3346 28.1701 21.0339 20.1747 17.9086 56.1609 85.0717
threshold=0.91067538126361658 0.86788204532248703 0.85333333333333339 0.00025663185259060007 0.55773420479302838 0.54494382022471921 0.82000000000000017 0.019289698519997105 0.53703703703703709 0.35333333333333339 0.031096777822569303 0.22637773156863103 0.53921568627450989 0.89809703660662421 0.37500000000000006 0.12921348314606743 0.17807216123698008 0.54139433551198268 0.80540607685601007
decision_type=2 2 2 2 2 2 2 2 2 2 2 2 2 2 2 2 2 2 2
left_child=2 -2 4 -4 5 6 8 16 10 -10 -1 -9 -13 -14 15 -12 17 -8 -19
right_child=1 -3 3 -5 -6 -7 7 11 9 -11 14 12 13 -15 -16 -17 -18 18 -20
leaf_value=-0.15264106822050846 -0.1075735351102968 -0.010104882513316605 -0.10925609482646324 0.057885435849625494 0.0033222667092573932 -0.057336934843871243 0.14110392260331311 -0.072013091796351333 -0.11781003431253766 0.084609593192362512 -0.044743394868240846 0.014974326615565079 1.2343024428169007 0.24899213447183421 0.019634387777507038 0.12396101032190611 0.04004728135641266 0.13156082542893741 2.9946061339898962
leaf_weight=14.975513751152901 76.135249035316519 156.01522267024848 38.820611823350191 265.35111558620702 4515.82828919861 503.31106258826912 16.782983272743881 299.16944718444574 53.470552107901312 27.587121276184916 20.306960111251101 26.3322906868998 0.82336452085291867 3.5550478574004956 133.14161423407495 154.42505226464709 75.102888186345808 0.70706486501148802 0.25934318260988221
leaf_count=134 32326 62659 2905 5895 342642 141463 620 112339 4400 512 314 3192 61 396 785 2143 3923 321 82
internal_value=0 -0.0422043 -1.99133e-05 0.0364433 -0.00192111 -0.0197348 0.00314881 -0.0282413 0.0360393 -0.0486831 0.057377 -0.0573046 0.0850004 0.4836 0.0677371 0.104234 0.0747422 0.218573 1.29533
internal_weight=0 232.15 6149.95 304.172 5845.78 1329.95 826.639 422.732 403.907 81.0577 322.849 329.88 30.7107 4.37841 307.874 174.732 92.8523 17.7494 0.966408
internal_count=717112 94985 622127 8800 613327 270685 129222 120934 8288 4912 3376 115988 3649 457 3242 2457 4946 1023 403
is_linear=0
shrinkage=0.16


Tree=36
num_leaves=20
num_cat=0
split_feature=9 16 16 15 14 14 1 20 16 16 1 6 7 7 5 15 1 14 15
split_gain=16.5869 15.4093 16.9652 24.2305 15.1862 22.3874 28.574 66.4143 32.4847 20.9335 19.5533 16.5533 38.1035 41.1266 29.7082 27.0994 26.2971 53.6017 53.219
threshold=0.75000000000000011 0.36559478060538014 0.27130300947660857 0.65468409586056653 0.1942138252832061 0.089763475858094008 0.37767187566739696 1.0000000180025095e-35 0.8032514737626687 0.68739291625930499 0.077662112604724068 1.0000000180025095e-35 0.25000000000000006 0.55000000000000016 0.09333333333333331 0.73965141612200447 0.0038167473136322002 0.55232264927381469 0.56100217864923752
decision_type=2 2 2 2 2 2 2 2 2 2 2 2 2 2 2 2 2 2 2
left_child=4 2 -2 -4 5 -1 7 8 -7 -8 -9 12 15 16 -15 -6 17 18 -14
right_child=1 -3 3 -5 11 6 9 10 -10 -11 -12 -13 13 14 -16 -17 -18 -19 -20
leaf_value=-0.0038948700417635062 -0.051284217376637874 -0.1340778253115647 0.44868745696216089 -0.15441836028796058 0.042789415156798648 0.048953358632302123 0.059236027129638623 0.05602581144411329 0.4818470651386747 0.22302742156491562 -0.14432817211241181 0.00021722601110229047 2.9905601789308847 1.1201412312543055 0.020872501375415974 -0.026841151989350127 -0.08772915093938681 -0.1194980150309547 -0.04697097895706101
leaf_weight=697.41340143815614 24.806650219106817 45.7927298231225 4.4055407167470539 2.5290035210491624 261.54311065966613 146.13295960705727 298.42984047904611 14.702687069773672 4.3921641086344598 21.346271785325371 75.185788056347519 3995.0687134347281 0.1605383229907591 0.43383445963263412 110.22691406367812 315.28628202012624 340.35591289910371 0.96693867264548317 0.22267193981679156
leaf_count=19984 11762 15354 1186 1638 47313 3313 4923 101 426 1703 508 128676 187 10 14944 122087 341710 1083 204
internal_value=0 -0.0748709 0.0103501 0.228331 -0.000502129 0.0152176 0.0390334 -0.00258151 0.0623135 0.0703523 -0.111328 -0.00444051 -0.0225327 -0.0572886 0.0273394 0.00470655 -0.0847419 0.572146 1.78728
internal_weight=0 77.5339 31.7412 6.93454 6281.87 1257.6 560.19 240.414 150.525 319.776 89.8885 5024.26 1029.2 452.367 110.661 576.829 341.706 1.35015 0.38321
internal_count=717112 29940 14586 2824 687172 30958 10974 4348 3739 6626 609 656214 527538 358138 14954 169400 343184 1474 391
is_linear=0
shrinkage=0.16


Tree=37
num_leaves=20
num_cat=0
split_feature=4 9 13 0 18 11 3 20 3 5 16 13 0 3 13 3 3 18 18
split_gain=13.8745 13.1868 19.3103 32.8753 69.4524 13.8744 13.7924 28.2279 40.2171 47.9627 23.4137 19.3101 20.0492 19.1183 16.6393 21.7271 18.4552 16.0518 58.8478
threshold=0.41666666666666669 0.75000000000000011 0.81460674157303381 0.98481987216734479 0.87805426472792691 1.0000000180025095e-35 0.15729937284724024 0.37500000000000006 0.21118096429765407 0.82000000000000017 0.44721558074477052 0.88202247191011252 0.80992155723416637 0.26682637953492766 0.75842696629213491 0.16464528622774757 0.18826443346090943 0.96919502323489748 0.93216909009144067
decision_type=2 2 2 2 2 2 2 2 2 2 2 2 2 2 2 2 2 2 2
left_child=-1 5 -3 -4 -5 6 -2 17 14 13 11 12 -11 -10 15 -9 -16 18 -8
right_child=1 2 3 4 -6 -7 7 8 9 10 -12 -13 -14 -15 16 -17 -18 -19 -20
leaf_value=-0.13108927746138263 -0.0023476633824581969 -0.11613892660671049 0.034600479562351932 -0.072391890663916214 3.4583959806168623 -0.1001488850077852 0.041994026488028371 0.16185903119369691 -0.17738153140488488 -0.12185267046987873 0.003200912849041357 0.70667311820154566 0.37874776503690827 -0.055673944189490329 0.039703588938028375 -0.019415138643847571 0.370789799727472 -0.083461025951697215 0.47219693868844309
leaf_weight=20.819852991320658 5449.05476788345 54.314685521589126 17.269875226775188 0.34379786520730604 0.025511743617244065 35.075983804796124 466.94724176669843 22.491028062999249 60.519782265648246 3.2140073627233523 16.912460882216692 2.2475614878348997 4.937265157699585 74.253567978739738 9.3065468836575764 66.095431382767856 8.1207115342840535 24.155430074228207 8.0959534905559831
leaf_count=31199 578781 24267 5394 266 13 19784 54948 101 366 31 155 21 54 450 60 365 47 429 381
internal_value=0 -0.00087473 -0.0688843 0.0753963 1.27267 -8.72021e-05 0.00047803 0.0205613 -0.0212647 -0.0713904 0.121046 0.307519 0.181256 -0.110627 0.0552122 0.0266889 0.197347 0.0430558 0.0495551
internal_weight=0 6323.38 71.9539 17.6392 0.36931 6251.43 6216.35 767.297 268.098 162.085 27.3113 10.3988 8.15127 134.773 106.014 88.5865 17.4273 499.199 475.043
internal_count=717112 685913 29940 5673 279 655973 636189 57408 1650 1077 261 106 85 816 573 466 107 55758 55329
is_linear=0
shrinkage=0.16


Tree=38
num_leaves=20
num_cat=0
split_feature=2 4 15 5 16 5 16 15 3 2 14 3 7 2 16 16 15 15 16
split_gain=11.9575 12.9663 11.9862 12.9163 12.5716 34.7245 18.6819 44.0208 67.8019 21.8452 25.173 55.733 45.3674 21.705 21.523 22.6286 20.8002 45.6564 20.5959
threshold=0.9849227033665523 0.41666666666666669 0.41721132897603491 0.54000000000000015 0.9671755060160494 0.39333333333333337 0.72341177267755352 0.44444444444444448 0.071214645494307616 0.51143043302989699 0.42404188863319486 0.11120343692474581 0.35000000000000003 0.97330711466526687 0.77112393158256476 0.76711161876736356 0.54139433551198268 0.53921568627450989 0.77554763955975892
decision_type=2 2 2 2 2 2 2 2 2 2 2 2 2 2 2 2 2 2 2
left_child=1 -1 3 -3 6 -6 -4 8 -8 -10 -11 12 -12 14 15 -9 17 -15 -16
right_child=-2 2 4 -5 5 -7 7 13 9 10 11 -13 -14 16 18 -17 -18 -19 -20
leaf_value=-0.13485229838290003 -0.11292457163198429 0.076629618882005354 0.0016299713887878466 -0.089458041591798182 -0.1096959141441067 0.11787958505443262 -0.049100248608670065 -0.10838412906449292 0.20666567316038553 0.29910775288137864 2.4284547827066221 0.2751581415261134 0.31695751663319582 0.1890530159188642 0.12395377497574341 -0.56054959231912438 0.072836239337959074 2.6488771036502596 -0.050998093028469367
leaf_weight=18.189585891435854 24.19959846243728 14.245832375250755 5836.6892089778848 68.735081176157109 22.802475324249826 67.069003020587843 22.31458119043964 109.36750415379356 7.904194810689658 3.5411606257948733 0.67431470652809389 1.6025098029058424 0.49560061845113523 0.73514691466698368 19.69209490340927 2.7433941996423519 2.6053832881734706 0.090473405667580664 127.01823901609168
leaf_count=30792 8398 403 381001 23610 2032 7170 5278 121688 1308 195 69 591 196 374 2221 1835 2991 29 126931
internal_value=0 -0.000694233 -0.000300599 -0.0606367 0.000503005 0.0598454 -0.000365548 -0.0393761 0.124579 0.395176 0.615129 0.966108 1.72252 -0.0623539 -0.0678071 -0.12057 0.325682 0.938184 -0.0272696
internal_weight=0 6326.52 6308.33 82.9809 6225.35 89.8715 6135.47 298.785 36.5324 14.2178 6.31359 2.77243 1.16992 262.252 258.821 112.111 3.431 0.82562 146.71
internal_count=717112 708714 677922 24013 653909 9202 644707 263706 7637 2359 1051 856 265 256069 252675 123523 3394 403 129152
is_linear=0
shrinkage=0.16


Tree=39
num_leaves=20
num_cat=0
split_feature=10 19 16 3 3 2 16 1 0 2 15 1 1 1 20 3 2 15 15
split_gain=11.5572 15.8961 13.9418 14.2153 20.8686 19.7445 14.1997 14.0007 13.5545 11.4264 24.0183 23.3221 28.2427 21.3893 35.9639 19.5038 17.1851 24.4627 32.184
threshold=0.44444444444444448 1.0000000180025095e-35 0.029760810012874204 0.031895177679409907 0.07484702660786792 0.4971007903100304 0.057866359491612354 0.80024773771532154 0.93412260313771089 0.77328977096946594 0.033769063180827855 0.070153707217954261 0.86022650305400827 0.85189433925422431 0.37500000000000006 0.14098591021769316 0.85493873456645475 0.53921568627450989 0.57625272331154698
decision_type=2 2 2 2 2 2 2 2 2 2 2 2 2 2 2 2 2 2 2
left_child=-1 -2 3 -3 -5 -6 -4 -7 -9 10 -8 -11 13 16 -15 -14 -13 -18 -19
right_child=1 2 6 4 5 7 9 8 -10 11 -12 12 15 14 -16 -17 17 18 -20
leaf_value=-0.079196193676951007 -0.73045809360950986 0.34015721914031072 -0.15446391192265985 -0.10220991145918007 -0.019556913630271889 0.16592753946760724 0.3036951622022811 0.7155158536034264 0 -0.075629254022122505 0.0032180915677691812 -0.020567457067140343 -0.081075922197140105 -0.060725607633487826 0.42760143110796028 0.030249012905582441 -0.039421052161561269 0.1659409520347174 0.020259282881642155
leaf_weight=47.888922299986007 0.56355682550929387 4.9100756963598533 15.199569117190547 13.854861686239017 11.383778205286946 11.65942573425127 6.6219655383611089 2.5176924263068936 0.9380989180644973 134.06972784332174 4457.4261574412849 581.16409297434438 187.02123796532396 7.3491067993745656 7.7225412474945188 50.980532606743509 164.01708630683424 41.3986213508324 593.46300692789373
leaf_count=41757 12 551 14227 9754 4366 3496 282 166 736 10122 495984 43625 17336 990 40 3299 15880 21520 32969
internal_value=0 -0.000455114 -0.000363966 0.0879138 0.0553013 0.138403 -0.00100902 0.257115 0.534484 -0.000627186 0.00368099 -0.0115182 -0.00623664 0.00244574 0.190763 -0.0571573 0.000350163 0.0155886 0.0298335
internal_weight=0 6292.26 6291.7 45.2639 40.3539 26.499 6246.43 15.1152 3.45579 6231.23 4464.05 1767.19 1633.12 1395.11 15.0716 238.002 1380.04 798.879 634.862
internal_count=717112 675355 675343 19069 18518 8764 656274 4398 902 642047 496266 145781 135659 115024 1030 20635 113994 70369 54489
is_linear=0
shrinkage=0.16


Tree=40
num_leaves=20
num_cat=0
split_feature=13 14 13 3 3 13 7 14 20 1 1 3 7 1 1 1 1 20 14
split_gain=12.2822 14.3232 16.048 17.1098 17.2024 12.0158 22.4084 31.548 18.0878 15.2444 13.8101 21.0688 15.3218 13.9443 12.8423 12.4136 20.7587 11.9869 30.4821
threshold=0.11797752808988761 0.6137951932327228 0.061797752808988755 0.25874247617832175 0.014356818153443602 0.028089887640449451 0.25000000000000006 0.64302908556147487 0.37500000000000006 0.37333036373510375 0.4680503774033915 0.28515058740950261 0.25000000000000006 0.49138714814837425 0.46408413319258263 0.77681943825778166 0.82844163214000244 0.37500000000000006 0.33971367907136413
decision_type=2 2 2 2 2 2 2 2 2 2 2 2 2 2 2 2 2 2 2
left_child=1 2 3 4 -1 6 7 8 -3 -7 11 14 13 -12 -11 -9 -17 18 -2
right_child=17 5 -4 -5 -6 9 -8 15 -10 10 12 -13 -14 -15 -16 16 -18 -19 -20
leaf_value=-0.14059265641203694 0.022794322266060995 1.0907303194755158 0.036585446920531561 -0.32637483715241628 -0.0029613569254067352 0.083414125145038751 0.027634892059463203 0.088150236474392726 0.045144277093215321 -0.10732672315390276 0.40046875029780737 0.95802555682733015 -0.034053232115438196 0.060214731241705961 -0.521115521307151 0.60382573332442691 0.11749447563821275 -0.017634687948896968 -0.0071526433334574606
leaf_weight=28.316465769108618 1168.6928344107091 1.3271180902374897 137.29166584962513 4.9072863534674971 127.30512216566058 73.844917329945019 49.613636224923539 23.027021658315789 0.65623086690902699 16.440560293151073 3.171750852110562 0.24186335346894239 67.560592552996241 41.576838741806569 2.0457021051261099 3.552676751627585 6.1906516351446044 1171.8217851439258 3403.7150543346215
leaf_count=716 49660 135 12222 323 13132 7940 6947 1447 4 1981 132 24 8665 2780 80 105 311 8789 601719
internal_value=0 0.0210935 -0.00348798 -0.037863 -0.0282554 0.0464436 0.0972624 0.195476 0.787931 0.0253647 -0.00730384 -0.133818 0.0138513 0.0863623 -0.159061 0.154572 0.305011 -0.00319807 0.000498868
internal_weight=0 587.07 297.821 160.529 155.622 289.25 84.3673 34.7537 1.98335 204.882 131.037 18.7281 112.309 44.7486 18.4863 32.7704 9.74333 5744.23 4572.41
internal_count=717112 56944 26393 14171 13848 30551 8949 2002 139 21602 13662 2085 11577 2912 2061 1863 416 660168 651379
is_linear=0
shrinkage=0.16


Tree=41
num_leaves=20
num_cat=0
split_feature=13 15 7 15 15 16 18 2 19 0 9 2 0 13 13 19 0 2 13
split_gain=10.7661 37.9185 27.3605 22.5829 36.3488 24.9716 28.412 23.4283 20.4189 19.2957 17.0233 16.9566 24.105 23.4146 27.4033 16.2506 16.1781 21.0079 27.4328
threshold=0.63483146067415741 0.62854030501089342 0.15000000000000005 0.73965141612200447 0.80065359477124198 0.99808338253942142 0.79853095487932857 0.96912119024628074 0.065420560747663517 0.48481987216734457 0.75000000000000011 0.96154152643273016 0.85074084834398622 0.35393258426966295 0.43258426966292135 0.34579439252336458 0.99585996513654862 0.84722313367770752 0.89325842696629232
decision_type=2 2 2 2 2 2 2 2 2 2 2 2 2 2 2 2 2 2 2
left_child=3 2 -2 5 15 7 -7 10 -3 -10 11 -1 13 -13 -15 -5 -4 -18 -19
right_child=1 8 16 4 -6 6 -8 -9 9 -11 -12 12 -14 14 -16 -17 17 18 -20
leaf_value=0.012958559783257389 1.4758088741325761 -0.2451626554851925 -0.049879762293102148 0.037252780691077188 -0.0020133212117248449 0.13893599041959859 0.95982052586418332 -0.10609263302394568 -0.058529663388826293 0.010878085647957338 -0.10853931429359785 -0.064671298065053368 -0.137248912216863 0.39003556395791239 -0.11252320741680805 -0.09215071419990524 0 0.12098796110049849 0.8615552730465682
